{"learner":{"attributes":{"scikit_learn":"{\"_estimator_type\": \"regressor\"}"},"feature_names":[],"feature_types":[],"gradient_booster":{"model":{"gbtree_model_param":{"num_parallel_tree":"1","num_trees":"415"},"iteration_indptr":[0,1,2,3,4,5,6,7,8,9,10,11,12,13,14,15,16,17,18,19,20,21,22,23,24,25,26,27,28,29,30,31,32,33,34,35,36,37,38,39,40,41,42,43,44,45,46,47,48,49,50,51,52,53,54,55,56,57,58,59,60,61,62,63,64,65,66,67,68,69,70,71,72,73,74,75,76,77,78,79,80,81,82,83,84,85,86,87,88,89,90,91,92,93,94,95,96,97,98,99,100,101,102,103,104,105,106,107,108,109,110,111,112,113,114,115,116,117,118,119,120,121,122,123,124,125,126,127,128,129,130,131,132,133,134,135,136,137,138,139,140,141,142,143,144,145,146,147,148,149,150,151,152,153,154,155,156,157,158,159,160,161,162,163,164,165,166,167,168,169,170,171,172,173,174,175,176,177,178,179,180,181,182,183,184,185,186,187,188,189,190,191,192,193,194,195,196,197,198,199,200,201,202,203,204,205,206,207,208,209,210,211,212,213,214,215,216,217,218,219,220,221,222,223,224,225,226,227,228,229,230,231,232,233,234,235,236,237,238,239,240,241,242,243,244,245,246,247,248,249,250,251,252,253,254,255,256,257,258,259,260,261,262,263,264,265,266,267,268,269,270,271,272,273,274,275,276,277,278,279,280,281,282,283,284,285,286,287,288,289,290,291,292,293,294,295,296,297,298,299,300,301,302,303,304,305,306,307,308,309,310,311,312,313,314,315,316,317,318,319,320,321,322,323,324,325,326,327,328,329,330,331,332,333,334,335,336,337,338,339,340,341,342,343,344,345,346,347,348,349,350,351,352,353,354,355,356,357,358,359,360,361,362,363,364,365,366,367,368,369,370,371,372,373,374,375,376,377,378,379,380,381,382,383,384,385,386,387,388,389,390,391,392,393,394,395,396,397,398,399,400,401,402,403,404,405,406,407,408,409,410,411,412,413,414,415],"tree_info":[0,0,0,0,0,0,0,0,0,0,0,0,0,0,0,0,0,0,0,0,0,0,0,0,0,0,0,0,0,0,0,0,0,0,0,0,0,0,0,0,0,0,0,0,0,0,0,0,0,0,0,0,0,0,0,0,0,0,0,0,0,0,0,0,0,0,0,0,0,0,0,0,0,0,0,0,0,0,0,0,0,0,0,0,0,0,0,0,0,0,0,0,0,0,0,0,0,0,0,0,0,0,0,0,0,0,0,0,0,0,0,0,0,0,0,0,0,0,0,0,0,0,0,0,0,0,0,0,0,0,0,0,0,0,0,0,0,0,0,0,0,0,0,0,0,0,0,0,0,0,0,0,0,0,0,0,0,0,0,0,0,0,0,0,0,0,0,0,0,0,0,0,0,0,0,0,0,0,0,0,0,0,0,0,0,0,0,0,0,0,0,0,0,0,0,0,0,0,0,0,0,0,0,0,0,0,0,0,0,0,0,0,0,0,0,0,0,0,0,0,0,0,0,0,0,0,0,0,0,0,0,0,0,0,0,0,0,0,0,0,0,0,0,0,0,0,0,0,0,0,0,0,0,0,0,0,0,0,0,0,0,0,0,0,0,0,0,0,0,0,0,0,0,0,0,0,0,0,0,0,0,0,0,0,0,0,0,0,0,0,0,0,0,0,0,0,0,0,0,0,0,0,0,0,0,0,0,0,0,0,0,0,0,0,0,0,0,0,0,0,0,0,0,0,0,0,0,0,0,0,0,0,0,0,0,0,0,0,0,0,0,0,0,0,0,0,0,0,0,0,0,0,0,0,0,0,0,0,0,0,0,0,0,0,0,0,0,0,0,0,0,0,0,0,0,0,0,0,0,0,0,0,0,0,0,0,0,0,0,0,0,0,0,0,0,0,0,0,0,0,0,0,0,0,0,0,0,0,0,0,0,0,0,0,0],"trees":[{"base_weights":[-1.34609E-8,-1.4180934E-1,1.11757E-1,-4.8062257E-2,-1.7236555E-2,1.2660837E-2,4.7931038E-2],"categories":[],"categories_nodes":[],"categories_segments":[],"categories_sizes":[],"default_left":[0,0,0,0,0,0,0],"id":0,"left_children":[1,3,5,-1,-1,-1,-1],"loss_changes":[4.2790103E0,3.31012E-1,6.4185846E-1,0E0,0E0,0E0,0E0],"parents":[2147483647,0,0,1,1,2,2],"right_children":[2,4,6,-1,-1,-1,-1],"split_conditions":[1.1E1,7E0,2.1E1,-4.8062257E-2,-1.7236555E-2,1.2660837E-2,4.7931038E-2],"split_indices":[4,4,4,0,0,0,0],"split_type":[0,0,0,0,0,0,0],"sum_hessian":[2.68E2,1.18E2,1.5E2,7.9E1,3.9E1,7.7E1,7.3E1],"tree_param":{"num_deleted":"0","num_feature":"5","num_nodes":"7","size_leaf_vector":"1"}},{"base_weights":[-1.7506232E-5,-1.042535E-1,8.212886E-2,-3.9506666E-2,-1.5244104E-2,9.302451E-3,3.5225876E-2],"categories":[],"categories_nodes":[],"categories_segments":[],"categories_sizes":[],"default_left":[0,0,0,0,0,0,0],"id":1,"left_children":[1,3,5,-1,-1,-1,-1],"loss_changes":[2.3119037E0,2.3354661E-1,3.4674537E-1,0E0,0E0,0E0,0E0],"parents":[2147483647,0,0,1,1,2,2],"right_children":[2,4,6,-1,-1,-1,-1],"split_conditions":[1.1E1,1E-1,2.1E1,-3.9506666E-2,-1.5244104E-2,9.302451E-3,3.5225876E-2],"split_indices":[4,3,4,0,0,0,0],"split_type":[0,0,0,0,0,0,0],"sum_hessian":[2.68E2,1.18E2,1.5E2,6.1E1,5.7E1,7.7E1,7.3E1],"tree_param":{"num_deleted":"0","num_feature":"5","num_nodes":"7","size_leaf_vector":"1"}},{"base_weights":[-5.0797866E-5,-5.8501735E-2,8.367667E-2,-2.8004587E-2,-3.2380759E-3,3.0584004E-2,8.449069E-3],"categories":[],"categories_nodes":[],"categories_segments":[],"categories_sizes":[],"default_left":[0,0,0,0,0,0,0],"id":2,"left_children":[1,3,5,-1,-1,-1,-1],"loss_changes":[1.3213676E0,3.36416E-1,1.7119247E-1,0E0,0E0,0E0,0E0],"parents":[2147483647,0,0,1,1,2,2],"right_children":[2,4,6,-1,-1,-1,-1],"split_conditions":[1.5E1,7E0,7.79E1,-2.8004587E-2,-3.2380759E-3,3.0584004E-2,8.449069E-3],"split_indices":[4,4,1,0,0,0,0],"split_type":[0,0,0,0,0,0,0],"sum_hessian":[2.68E2,1.58E2,1.1E2,7.9E1,7.9E1,6.9E1,4.1E1],"tree_param":{"num_deleted":"0","num_feature":"5","num_nodes":"7","size_leaf_vector":"1"}},{"base_weights":[-8.187883E-6,-4.2978648E-2,6.1544165E-2,-2.0280723E-2,-1.9858277E-3,6.8460563E-3,2.5932815E-2],"categories":[],"categories_nodes":[],"categories_segments":[],"categories_sizes":[],"default_left":[0,0,0,0,0,0,0],"id":3,"left_children":[1,3,5,-1,-1,-1,-1],"loss_changes":[7.141321E-1,1.833317E-1,1.3752526E-1,0E0,0E0,0E0,0E0],"parents":[2147483647,0,0,1,1,2,2],"right_children":[2,4,6,-1,-1,-1,-1],"split_conditions":[1.5E1,1E-1,1E-1,-2.0280723E-2,-1.9858277E-3,6.8460563E-3,2.5932815E-2],"split_indices":[4,3,3,0,0,0,0],"split_type":[0,0,0,0,0,0,0],"sum_hessian":[2.68E2,1.58E2,1.1E2,8.2E1,7.6E1,5.5E1,5.5E1],"tree_param":{"num_deleted":"0","num_feature":"5","num_nodes":"7","size_leaf_vector":"1"}},{"base_weights":[3.3086642E-5,-6.545844E-2,2.7608294E-2,-2.260628E-2,-4.1715223E-3,1.3298245E-2,-3.3262258E-3],"categories":[],"categories_nodes":[],"categories_segments":[],"categories_sizes":[],"default_left":[0,0,0,0,0,0,0],"id":4,"left_children":[1,3,5,-1,-1,-1,-1],"loss_changes":[4.876057E-1,7.328588E-2,1.6686414E-1,0E0,0E0,0E0,0E0],"parents":[2147483647,0,0,1,1,2,2],"right_children":[2,4,6,-1,-1,-1,-1],"split_conditions":[7E0,9.04E1,7.79E1,-2.260628E-2,-4.1715223E-3,1.3298245E-2,-3.3262258E-3],"split_indices":[4,0,1,0,0,0,0],"split_type":[0,0,0,0,0,0,0],"sum_hessian":[2.68E2,7.9E1,1.89E2,5.7E1,2.2E1,1.22E2,6.7E1],"tree_param":{"num_deleted":"0","num_feature":"5","num_nodes":"7","size_leaf_vector":"1"}},{"base_weights":[-3.8275073E-5,-3.6643397E-2,2.8809723E-2,-2.2210106E-2,-4.8436285E-3,6.421774E-4,1.492642E-2],"categories":[],"categories_nodes":[],"categories_segments":[],"categories_sizes":[],"default_left":[0,0,0,0,0,0,0],"id":5,"left_children":[1,3,5,-1,-1,-1,-1],"loss_changes":[2.851155E-1,1.00451455E-1,1.06544375E-1,0E0,0E0,0E0,0E0],"parents":[2147483647,0,0,1,1,2,2],"right_children":[2,4,6,-1,-1,-1,-1],"split_conditions":[1.1E1,5E-2,1E-1,-2.2210106E-2,-4.8436285E-3,6.421774E-4,1.492642E-2],"split_indices":[4,3,3,0,0,0,0],"split_type":[0,0,0,0,0,0,0],"sum_hessian":[2.68E2,1.18E2,1.5E2,3.3E1,8.5E1,7.6E1,7.4E1],"tree_param":{"num_deleted":"0","num_feature":"5","num_nodes":"7","size_leaf_vector":"1"}},{"base_weights":[-7.069284E-5,-1.6604668E-2,4.372295E-2,-8.49823E-3,7.4948547E-3,5.7181413E-3,1.8304622E-2],"categories":[],"categories_nodes":[],"categories_segments":[],"categories_sizes":[],"default_left":[0,0,0,0,0,0,0],"id":6,"left_children":[1,3,5,-1,-1,-1,-1],"loss_changes":[1.9550434E-1,1.3189825E-1,3.907107E-2,0E0,0E0,0E0,0E0],"parents":[2147483647,0,0,1,1,2,2],"right_children":[2,4,6,-1,-1,-1,-1],"split_conditions":[2.1E1,1.5E-1,3E1,-8.49823E-3,7.4948547E-3,5.7181413E-3,1.8304622E-2],"split_indices":[4,3,4,0,0,0,0],"split_type":[0,0,0,0,0,0,0],"sum_hessian":[2.68E2,1.95E2,7.3E1,1.46E2,4.9E1,3.9E1,3.4E1],"tree_param":{"num_deleted":"0","num_feature":"5","num_nodes":"7","size_leaf_vector":"1"}},{"base_weights":[3.38748E-5,-5.9641004E-2,1.04119675E-2,-2.0143408E-2,-4.73911E-3,6.9791144E-3,-4.834285E-3],"categories":[],"categories_nodes":[],"categories_segments":[],"categories_sizes":[],"default_left":[0,0,0,0,0,0,0],"id":7,"left_children":[1,3,5,-1,-1,-1,-1],"loss_changes":[1.6721575E-1,2.4425268E-2,1.02125645E-1,0E0,0E0,0E0,0E0],"parents":[2147483647,0,0,1,1,2,2],"right_children":[2,4,6,-1,-1,-1,-1],"split_conditions":[3E0,9.04E1,7.79E1,-2.0143408E-2,-4.73911E-3,6.9791144E-3,-4.834285E-3],"split_indices":[4,0,1,0,0,0,0],"split_type":[0,0,0,0,0,0,0],"sum_hessian":[2.68E2,3.9E1,2.29E2,2.8E1,1.1E1,1.48E2,8.1E1],"tree_param":{"num_deleted":"0","num_feature":"5","num_nodes":"7","size_leaf_vector":"1"}},{"base_weights":[-5.9749447E-5,-3.393533E-2,1.2026813E-2,-1.0781125E-2,5.3221625E-3,6.98378E-3,-3.4837204E-3],"categories":[],"categories_nodes":[],"categories_segments":[],"categories_sizes":[],"default_left":[0,0,0,0,0,0,0],"id":8,"left_children":[1,3,5,-1,-1,-1,-1],"loss_changes":[1.10547304E-1,2.4404474E-2,6.978457E-2,0E0,0E0,0E0,0E0],"parents":[2147483647,0,0,1,1,2,2],"right_children":[2,4,6,-1,-1,-1,-1],"split_conditions":[5E-2,3E1,7.79E1,-1.0781125E-2,5.3221625E-3,6.98378E-3,-3.4837204E-3],"split_indices":[3,4,1,0,0,0,0],"split_type":[0,0,0,0,0,0,0],"sum_hessian":[2.68E2,7E1,1.98E2,6.3E1,7E0,1.27E2,7.1E1],"tree_param":{"num_deleted":"0","num_feature":"5","num_nodes":"7","size_leaf_vector":"1"}},{"base_weights":[-5.097898E-5,-4.328264E-2,7.4677924E-3,-1.4462491E-2,-3.8161962E-3,-5.9845496E-4,9.74232E-3],"categories":[],"categories_nodes":[],"categories_segments":[],"categories_sizes":[],"default_left":[0,0,0,0,0,0,0],"id":9,"left_children":[1,3,5,-1,-1,-1,-1],"loss_changes":[8.7761395E-2,1.1496715E-2,6.427601E-2,0E0,0E0,0E0,0E0],"parents":[2147483647,0,0,1,1,2,2],"right_children":[2,4,6,-1,-1,-1,-1],"split_conditions":[3E0,1.5E-1,1.5E-1,-1.4462491E-2,-3.8161962E-3,-5.9845496E-4,9.74232E-3],"split_indices":[4,3,3,0,0,0,0],"split_type":[0,0,0,0,0,0,0],"sum_hessian":[2.68E2,3.9E1,2.29E2,2.8E1,1.1E1,1.72E2,5.7E1],"tree_param":{"num_deleted":"0","num_feature":"5","num_nodes":"7","size_leaf_vector":"1"}},{"base_weights":[-7.12363E-5,-6.5812524E-3,4.3640908E-2,-4.1047316E-3,3.5778026E-3,1.506827E-2,6.2660985E-3],"categories":[],"categories_nodes":[],"categories_segments":[],"categories_sizes":[],"default_left":[0,0,0,0,0,0,0],"id":10,"left_children":[1,3,5,-1,-1,-1,-1],"loss_changes":[7.683568E-2,4.0857404E-2,7.5378865E-3,0E0,0E0,0E0,0E0],"parents":[2147483647,0,0,1,1,2,2],"right_children":[2,4,6,-1,-1,-1,-1],"split_conditions":[3E1,9.04E1,7.79E1,-4.1047316E-3,3.5778026E-3,1.506827E-2,6.2660985E-3],"split_indices":[4,0,1,0,0,0,0],"split_type":[0,0,0,0,0,0,0],"sum_hessian":[2.68E2,2.34E2,3.4E1,1.63E2,7.1E1,2E1,1.4E1],"tree_param":{"num_deleted":"0","num_feature":"5","num_nodes":"7","size_leaf_vector":"1"}},{"base_weights":[2.5258825E-5,-8.510046E-3,2.263194E-2,-4.107682E-3,3.1128281E-3,-1.0939782E-3,8.079504E-3],"categories":[],"categories_nodes":[],"categories_segments":[],"categories_sizes":[],"default_left":[0,0,0,0,0,0,0],"id":11,"left_children":[1,3,5,-1,-1,-1,-1],"loss_changes":[5.209747E-2,2.6868876E-2,1.4817484E-2,0E0,0E0,0E0,0E0],"parents":[2147483647,0,0,1,1,2,2],"right_children":[2,4,6,-1,-1,-1,-1],"split_conditions":[2.1E1,1.5E-1,5E-2,-4.107682E-3,3.1128281E-3,-1.0939782E-3,8.079504E-3],"split_indices":[4,3,3,0,0,0,0],"split_type":[0,0,0,0,0,0,0],"sum_hessian":[2.68E2,1.95E2,7.3E1,1.46E2,4.9E1,1.6E1,5.7E1],"tree_param":{"num_deleted":"0","num_feature":"5","num_nodes":"7","size_leaf_vector":"1"}},{"base_weights":[4.0744166E-5,-1.8321084E-2,7.771826E-3,-6.79931E-3,2.2864311E-5,4.172517E-3,-1.71236E-3],"categories":[],"categories_nodes":[],"categories_segments":[],"categories_sizes":[],"default_left":[0,0,0,0,0,0,0],"id":12,"left_children":[1,3,5,-1,-1,-1,-1],"loss_changes":[3.8328763E-2,1.0284755E-2,2.0944357E-2,0E0,0E0,0E0,0E0],"parents":[2147483647,0,0,1,1,2,2],"right_children":[2,4,6,-1,-1,-1,-1],"split_conditions":[7E0,9.04E1,7.79E1,-6.79931E-3,2.2864311E-5,4.172517E-3,-1.71236E-3],"split_indices":[4,0,1,0,0,0,0],"split_type":[0,0,0,0,0,0,0],"sum_hessian":[2.68E2,7.9E1,1.89E2,5.7E1,2.2E1,1.22E2,6.7E1],"tree_param":{"num_deleted":"0","num_feature":"5","num_nodes":"7","size_leaf_vector":"1"}},{"base_weights":[1.3754728E-5,-1.8209632E-2,6.5154973E-3,-8.17106E-3,-3.2544308E-3,-8.396525E-5,5.712682E-3],"categories":[],"categories_nodes":[],"categories_segments":[],"categories_sizes":[],"default_left":[0,0,0,0,0,0,0],"id":13,"left_children":[1,3,5,-1,-1,-1,-1],"loss_changes":[3.1990778E-2,4.913628E-3,2.0041311E-2,0E0,0E0,0E0,0E0],"parents":[2147483647,0,0,1,1,2,2],"right_children":[2,4,6,-1,-1,-1,-1],"split_conditions":[5E-2,7E0,9.04E1,-8.17106E-3,-3.2544308E-3,-8.396525E-5,5.712682E-3],"split_indices":[3,4,0,0,0,0,0],"split_type":[0,0,0,0,0,0,0],"sum_hessian":[2.68E2,7E1,1.98E2,2.2E1,4.8E1,1.36E2,6.2E1],"tree_param":{"num_deleted":"0","num_feature":"5","num_nodes":"7","size_leaf_vector":"1"}},{"base_weights":[-1.1493116E-5,-2.2300951E-2,3.8649845E-3,-7.2365045E-3,-2.486207E-3,-3.0349736E-4,5.0235763E-3],"categories":[],"categories_nodes":[],"categories_segments":[],"categories_sizes":[],"default_left":[0,0,0,0,0,0,0],"id":14,"left_children":[1,3,5,-1,-1,-1,-1],"loss_changes":[2.3329029E-2,2.1675248E-3,1.7057551E-2,0E0,0E0,0E0,0E0],"parents":[2147483647,0,0,1,1,2,2],"right_children":[2,4,6,-1,-1,-1,-1],"split_conditions":[3E0,9.04E1,1.5E-1,-7.2365045E-3,-2.486207E-3,-3.0349736E-4,5.0235763E-3],"split_indices":[4,0,3,0,0,0,0],"split_type":[0,0,0,0,0,0,0],"sum_hessian":[2.68E2,3.9E1,2.29E2,2.8E1,1.1E1,1.72E2,5.7E1],"tree_param":{"num_deleted":"0","num_feature":"5","num_nodes":"7","size_leaf_vector":"1"}},{"base_weights":[-2.699819E-5,-3.4732695E-3,2.3113023E-2,-3.8890173E-3,1.7195915E-4,4.3172254E-3,9.479605E-3],"categories":[],"categories_nodes":[],"categories_segments":[],"categories_sizes":[],"default_left":[0,0,0,0,0,0,0],"id":15,"left_children":[1,3,5,-1,-1,-1,-1],"loss_changes":[2.1532165E-2,1.0641996E-2,2.433505E-3,0E0,0E0,0E0,0E0],"parents":[2147483647,0,0,1,1,2,2],"right_children":[2,4,6,-1,-1,-1,-1],"split_conditions":[3E1,5E-2,9.04E1,-3.8890173E-3,1.7195915E-4,4.3172254E-3,9.479605E-3],"split_indices":[4,3,0,0,0,0,0],"split_type":[0,0,0,0,0,0,0],"sum_hessian":[2.68E2,2.34E2,3.4E1,6.3E1,1.71E2,2.3E1,1.1E1],"tree_param":{"num_deleted":"0","num_feature":"5","num_nodes":"7","size_leaf_vector":"1"}},{"base_weights":[1.7729277E-5,-2.5558085E-3,1.7296692E-2,5.4070394E-4,-2.94114E-3,4.062792E-4,5.693507E-3],"categories":[],"categories_nodes":[],"categories_segments":[],"categories_sizes":[],"default_left":[0,0,0,0,0,0,0],"id":16,"left_children":[1,3,5,-1,-1,-1,-1],"loss_changes":[1.2006116E-2,9.028572E-3,2.1182485E-3,0E0,0E0,0E0,0E0],"parents":[2147483647,0,0,1,1,2,2],"right_children":[2,4,6,-1,-1,-1,-1],"split_conditions":[3E1,7.79E1,5E-2,5.4070394E-4,-2.94114E-3,4.062792E-4,5.693507E-3],"split_indices":[4,1,3,0,0,0,0],"split_type":[0,0,0,0,0,0,0],"sum_hessian":[2.68E2,2.34E2,3.4E1,1.52E2,8.2E1,7E0,2.7E1],"tree_param":{"num_deleted":"0","num_feature":"5","num_nodes":"7","size_leaf_vector":"1"}},{"base_weights":[2.6717587E-5,-1.4824076E-2,2.6093482E-3,-4.9721496E-3,-1.2615402E-3,-1.8835449E-4,3.3421952E-3],"categories":[],"categories_nodes":[],"categories_segments":[],"categories_sizes":[],"default_left":[0,0,0,0,0,0,0],"id":17,"left_children":[1,3,5,-1,-1,-1,-1],"loss_changes":[1.0355938E-2,1.4042137E-3,7.492205E-3,0E0,0E0,0E0,0E0],"parents":[2147483647,0,0,1,1,2,2],"right_children":[2,4,6,-1,-1,-1,-1],"split_conditions":[3E0,1.5E-1,1.5E-1,-4.9721496E-3,-1.2615402E-3,-1.8835449E-4,3.3421952E-3],"split_indices":[4,3,3,0,0,0,0],"split_type":[0,0,0,0,0,0,0],"sum_hessian":[2.68E2,3.9E1,2.29E2,2.8E1,1.1E1,1.72E2,5.7E1],"tree_param":{"num_deleted":"0","num_feature":"5","num_nodes":"7","size_leaf_vector":"1"}},{"base_weights":[8.088789E-6,-4.347868E-3,6.2476294E-3,-2.1287184E-3,9.6803735E-4,-8.6001714E-4,2.4267707E-3],"categories":[],"categories_nodes":[],"categories_segments":[],"categories_sizes":[],"default_left":[0,0,0,0,0,0,0],"id":18,"left_children":[1,3,5,-1,-1,-1,-1],"loss_changes":[7.3383595E-3,4.546967E-3,2.948437E-3,0E0,0E0,0E0,0E0],"parents":[2147483647,0,0,1,1,2,2],"right_children":[2,4,6,-1,-1,-1,-1],"split_conditions":[1.5E1,9.04E1,5E-2,-2.1287184E-3,9.6803735E-4,-8.6001714E-4,2.4267707E-3],"split_indices":[4,0,3,0,0,0,0],"split_type":[0,0,0,0,0,0,0],"sum_hessian":[2.68E2,1.58E2,1.1E2,1.09E2,4.9E1,2.5E1,8.5E1],"tree_param":{"num_deleted":"0","num_feature":"5","num_nodes":"7","size_leaf_vector":"1"}},{"base_weights":[7.4256736E-6,3.2285976E-3,-5.737628E-3,-7.612024E-4,2.5240588E-3,-2.335999E-3,3.1004765E-4],"categories":[],"categories_nodes":[],"categories_segments":[],"categories_sizes":[],"default_left":[0,0,0,0,0,0,0],"id":19,"left_children":[1,3,5,-1,-1,-1,-1],"loss_changes":[4.9965857E-3,6.4913426E-3,1.9860368E-3,0E0,0E0,0E0,0E0],"parents":[2147483647,0,0,1,1,2,2],"right_children":[2,4,6,-1,-1,-1,-1],"split_conditions":[7.79E1,1E-1,2.1E1,-7.612024E-4,2.5240588E-3,-2.335999E-3,3.1004765E-4],"split_indices":[1,3,4,0,0,0,0],"split_type":[0,0,0,0,0,0,0],"sum_hessian":[2.68E2,1.72E2,9.6E1,8.7E1,8.5E1,6.7E1,2.9E1],"tree_param":{"num_deleted":"0","num_feature":"5","num_nodes":"7","size_leaf_vector":"1"}},{"base_weights":[4.454263E-6,-9.425611E-3,1.6444464E-3,-3.1249833E-3,-8.9025014E-4,-1.1854778E-3,1.0102816E-3],"categories":[],"categories_nodes":[],"categories_segments":[],"categories_sizes":[],"default_left":[0,0,0,0,0,0,0],"id":20,"left_children":[1,3,5,-1,-1,-1,-1],"loss_changes":[4.175648E-3,5.004117E-4,2.9632351E-3,0E0,0E0,0E0,0E0],"parents":[2147483647,0,0,1,1,2,2],"right_children":[2,4,6,-1,-1,-1,-1],"split_conditions":[3E0,1.5E-1,5E-2,-3.1249833E-3,-8.9025014E-4,-1.1854778E-3,1.0102816E-3],"split_indices":[4,3,3,0,0,0,0],"split_type":[0,0,0,0,0,0,0],"sum_hessian":[2.68E2,3.9E1,2.29E2,2.8E1,1.1E1,5.9E1,1.7E2],"tree_param":{"num_deleted":"0","num_feature":"5","num_nodes":"7","size_leaf_vector":"1"}},{"base_weights":[-1.2317326E-5,-1.4175458E-3,9.42314E-3,-8.041364E-4,8.395527E-4,4.2305174E-3,-1.4668459E-5],"categories":[],"categories_nodes":[],"categories_segments":[],"categories_sizes":[],"default_left":[0,0,0,0,0,0,0],"id":21,"left_children":[1,3,5,-1,-1,-1,-1],"loss_changes":[3.5800217E-3,1.6905857E-3,2.0976937E-3,0E0,0E0,0E0,0E0],"parents":[2147483647,0,0,1,1,2,2],"right_children":[2,4,6,-1,-1,-1,-1],"split_conditions":[3E1,1.5E-1,7.79E1,-8.041364E-4,8.395527E-4,4.2305174E-3,-1.4668459E-5],"split_indices":[4,3,1,0,0,0,0],"split_type":[0,0,0,0,0,0,0],"sum_hessian":[2.68E2,2.34E2,3.4E1,1.74E2,6E1,2E1,1.4E1],"tree_param":{"num_deleted":"0","num_feature":"5","num_nodes":"7","size_leaf_vector":"1"}},{"base_weights":[6.793773E-6,2.1507768E-3,-3.817081E-3,-6.55483E-5,2.3043563E-3,-1.5231142E-3,1.3609059E-4],"categories":[],"categories_nodes":[],"categories_segments":[],"categories_sizes":[],"default_left":[0,0,0,0,0,0,0],"id":22,"left_children":[1,3,5,-1,-1,-1,-1],"loss_changes":[2.2135584E-3,2.6639164E-3,7.7928475E-4,0E0,0E0,0E0,0E0],"parents":[2147483647,0,0,1,1,2,2],"right_children":[2,4,6,-1,-1,-1,-1],"split_conditions":[7.79E1,1.5E-1,2.1E1,-6.55483E-5,2.3043563E-3,-1.5231142E-3,1.3609059E-4],"split_indices":[1,3,4,0,0,0,0],"split_type":[0,0,0,0,0,0,0],"sum_hessian":[2.68E2,1.72E2,9.6E1,1.26E2,4.6E1,6.7E1,2.9E1],"tree_param":{"num_deleted":"0","num_feature":"5","num_nodes":"7","size_leaf_vector":"1"}},{"base_weights":[8.133196E-6,-6.465521E-3,1.1339508E-3,-2.002241E-3,-9.522622E-4,-1.5185318E-4,1.3086761E-3],"categories":[],"categories_nodes":[],"categories_segments":[],"categories_sizes":[],"default_left":[0,0,0,0,0,0,0],"id":23,"left_children":[1,3,5,-1,-1,-1,-1],"loss_changes":[1.9678453E-3,8.881884E-5,1.4628975E-3,0E0,0E0,0E0,0E0],"parents":[2147483647,0,0,1,1,2,2],"right_children":[2,4,6,-1,-1,-1,-1],"split_conditions":[3E0,9.04E1,9.04E1,-2.002241E-3,-9.522622E-4,-1.5185318E-4,1.3086761E-3],"split_indices":[4,0,0,0,0,0,0],"split_type":[0,0,0,0,0,0,0],"sum_hessian":[2.68E2,3.9E1,2.29E2,2.8E1,1.1E1,1.58E2,7.1E1],"tree_param":{"num_deleted":"0","num_feature":"5","num_nodes":"7","size_leaf_vector":"1"}},{"base_weights":[-7.3883916E-7,-9.5586E-4,6.412239E-3,-1.0357981E-3,3.4495082E-5,2.8766706E-3,-7.0374012E-6],"categories":[],"categories_nodes":[],"categories_segments":[],"categories_sizes":[],"default_left":[0,0,0,0,0,0,0],"id":24,"left_children":[1,3,5,-1,-1,-1,-1],"loss_changes":[1.6538001E-3,7.3913444E-4,9.6780655E-4,0E0,0E0,0E0,0E0],"parents":[2147483647,0,0,1,1,2,2],"right_children":[2,4,6,-1,-1,-1,-1],"split_conditions":[3E1,5E-2,7.79E1,-1.0357981E-3,3.4495082E-5,2.8766706E-3,-7.0374012E-6],"split_indices":[4,3,1,0,0,0,0],"split_type":[0,0,0,0,0,0,0],"sum_hessian":[2.68E2,2.34E2,3.4E1,6.3E1,1.71E2,2E1,1.4E1],"tree_param":{"num_deleted":"0","num_feature":"5","num_nodes":"7","size_leaf_vector":"1"}},{"base_weights":[6.4081164E-6,-1.2401749E-3,3.308082E-3,-1.2202829E-3,-1.0511732E-4,1.2707435E-4,2.9394415E-3],"categories":[],"categories_nodes":[],"categories_segments":[],"categories_sizes":[],"default_left":[0,0,0,0,0,0,0],"id":25,"left_children":[1,3,5,-1,-1,-1,-1],"loss_changes":[1.1112556E-3,5.475399E-4,1.5958892E-3,0E0,0E0,0E0,0E0],"parents":[2147483647,0,0,1,1,2,2],"right_children":[2,4,6,-1,-1,-1,-1],"split_conditions":[2.1E1,3E0,1.5E-1,-1.2202829E-3,-1.0511732E-4,1.2707435E-4,2.9394415E-3],"split_indices":[4,4,3,0,0,0,0],"split_type":[0,0,0,0,0,0,0],"sum_hessian":[2.68E2,1.95E2,7.3E1,3.9E1,1.56E2,5.4E1,1.9E1],"tree_param":{"num_deleted":"0","num_feature":"5","num_nodes":"7","size_leaf_vector":"1"}},{"base_weights":[1.1155713E-5,-1.1232566E-3,2.566866E-3,-6.584426E-4,2.0497356E-4,-1.2180237E-3,1.314692E-3],"categories":[],"categories_nodes":[],"categories_segments":[],"categories_sizes":[],"default_left":[0,0,0,0,0,0,0],"id":26,"left_children":[1,3,5,-1,-1,-1,-1],"loss_changes":[7.82776E-4,4.699669E-4,1.3927841E-3,0E0,0E0,0E0,0E0],"parents":[2147483647,0,0,1,1,2,2],"right_children":[2,4,6,-1,-1,-1,-1],"split_conditions":[9.04E1,1.5E1,5E-2,-6.584426E-4,2.0497356E-4,-1.2180237E-3,1.314692E-3],"split_indices":[0,4,3,0,0,0,0],"split_type":[0,0,0,0,0,0,0],"sum_hessian":[2.68E2,1.86E2,8.2E1,1.09E2,7.7E1,2E1,6.2E1],"tree_param":{"num_deleted":"0","num_feature":"5","num_nodes":"7","size_leaf_vector":"1"}},{"base_weights":[6.8292265E-6,1.0657529E-3,-1.8818371E-3,-9.128522E-5,1.3007525E-3,1.8911403E-4,-1.2487944E-3],"categories":[],"categories_nodes":[],"categories_segments":[],"categories_sizes":[],"default_left":[0,0,0,0,0,0,0],"id":27,"left_children":[1,3,5,-1,-1,-1,-1],"loss_changes":[5.399931E-4,9.1955357E-4,6.969174E-4,0E0,0E0,0E0,0E0],"parents":[2147483647,0,0,1,1,2,2],"right_children":[2,4,6,-1,-1,-1,-1],"split_conditions":[7.79E1,1.5E-1,1E-1,-9.128522E-5,1.3007525E-3,1.8911403E-4,-1.2487944E-3],"split_indices":[1,3,3,0,0,0,0],"split_type":[0,0,0,0,0,0,0],"sum_hessian":[2.68E2,1.72E2,9.6E1,1.26E2,4.6E1,5E1,4.6E1],"tree_param":{"num_deleted":"0","num_feature":"5","num_nodes":"7","size_leaf_vector":"1"}},{"base_weights":[5.5525757E-6,-5.518406E-4,3.7478907E-3,-8.1536674E-4,-1.1384622E-5,2.4763137E-4,2.4420207E-3],"categories":[],"categories_nodes":[],"categories_segments":[],"categories_sizes":[],"default_left":[0,0,0,0,0,0,0],"id":28,"left_children":[1,3,5,-1,-1,-1,-1],"loss_changes":[5.6318974E-4,2.971047E-4,5.198911E-4,0E0,0E0,0E0,0E0],"parents":[2147483647,0,0,1,1,2,2],"right_children":[2,4,6,-1,-1,-1,-1],"split_conditions":[3E1,3E0,9.04E1,-8.1536674E-4,-1.1384622E-5,2.4763137E-4,2.4420207E-3],"split_indices":[4,4,0,0,0,0,0],"split_type":[0,0,0,0,0,0,0],"sum_hessian":[2.68E2,2.34E2,3.4E1,3.9E1,1.95E2,2.3E1,1.1E1],"tree_param":{"num_deleted":"0","num_feature":"5","num_nodes":"7","size_leaf_vector":"1"}},{"base_weights":[1.098591E-5,-1.8460081E-3,6.734763E-4,-8.9536683E-4,-2.984595E-4,5.181893E-4,-4.2105842E-4],"categories":[],"categories_nodes":[],"categories_segments":[],"categories_sizes":[],"default_left":[0,0,0,0,0,0,0],"id":29,"left_children":[1,3,5,-1,-1,-1,-1],"loss_changes":[3.3217797E-4,7.388291E-5,5.625747E-4,0E0,0E0,0E0,0E0],"parents":[2147483647,0,0,1,1,2,2],"right_children":[2,4,6,-1,-1,-1,-1],"split_conditions":[5E-2,7E0,7.79E1,-8.9536683E-4,-2.984595E-4,5.181893E-4,-4.2105842E-4],"split_indices":[3,4,1,0,0,0,0],"split_type":[0,0,0,0,0,0,0],"sum_hessian":[2.68E2,7E1,1.98E2,2.2E1,4.8E1,1.27E2,7.1E1],"tree_param":{"num_deleted":"0","num_feature":"5","num_nodes":"7","size_leaf_vector":"1"}},{"base_weights":[3.952437E-6,-4.1244293E-4,2.799637E-3,-5.6365406E-4,-1.7844946E-5,2.2232952E-4,1.7494624E-3],"categories":[],"categories_nodes":[],"categories_segments":[],"categories_sizes":[],"default_left":[0,0,0,0,0,0,0],"id":30,"left_children":[1,3,5,-1,-1,-1,-1],"loss_changes":[3.1430033E-4,1.3690027E-4,2.5078387E-4,0E0,0E0,0E0,0E0],"parents":[2147483647,0,0,1,1,2,2],"right_children":[2,4,6,-1,-1,-1,-1],"split_conditions":[3E1,3E0,9.04E1,-5.6365406E-4,-1.7844946E-5,2.2232952E-4,1.7494624E-3],"split_indices":[4,4,0,0,0,0,0],"split_type":[0,0,0,0,0,0,0],"sum_hessian":[2.68E2,2.34E2,3.4E1,3.9E1,1.95E2,2.3E1,1.1E1],"tree_param":{"num_deleted":"0","num_feature":"5","num_nodes":"7","size_leaf_vector":"1"}},{"base_weights":[8.062386E-6,-4.9087795E-4,1.3294711E-3,-2.4183544E-5,-4.4594947E-4,-1.8361176E-4,1.826693E-3],"categories":[],"categories_nodes":[],"categories_segments":[],"categories_sizes":[],"default_left":[0,0,0,0,0,0,0],"id":31,"left_children":[1,3,5,-1,-1,-1,-1],"loss_changes":[1.7800542E-4,9.168232E-5,8.1919506E-4,0E0,0E0,0E0,0E0],"parents":[2147483647,0,0,1,1,2,2],"right_children":[2,4,6,-1,-1,-1,-1],"split_conditions":[2.1E1,1.5E-1,1.5E-1,-2.4183544E-5,-4.4594947E-4,-1.8361176E-4,1.826693E-3],"split_indices":[4,3,3,0,0,0,0],"split_type":[0,0,0,0,0,0,0],"sum_hessian":[2.68E2,1.95E2,7.3E1,1.46E2,4.9E1,5.4E1,1.9E1],"tree_param":{"num_deleted":"0","num_feature":"5","num_nodes":"7","size_leaf_vector":"1"}},{"base_weights":[1.0252773E-5,-1.2715608E-3,4.6753173E-4,-1.4741551E-4,-7.9716736E-4,-1.01167956E-4,6.168222E-4],"categories":[],"categories_nodes":[],"categories_segments":[],"categories_sizes":[],"default_left":[0,0,0,0,0,0,0],"id":32,"left_children":[1,3,5,-1,-1,-1,-1],"loss_changes":[1.5826787E-4,8.538325E-5,3.0790528E-4,0E0,0E0,0E0,0E0],"parents":[2147483647,0,0,1,1,2,2],"right_children":[2,4,6,-1,-1,-1,-1],"split_conditions":[5E-2,9.04E1,9.04E1,-1.4741551E-4,-7.9716736E-4,-1.01167956E-4,6.168222E-4],"split_indices":[3,0,0,0,0,0,0],"split_type":[0,0,0,0,0,0,0],"sum_hessian":[2.68E2,7E1,1.98E2,5E1,2E1,1.36E2,6.2E1],"tree_param":{"num_deleted":"0","num_feature":"5","num_nodes":"7","size_leaf_vector":"1"}},{"base_weights":[5.903047E-6,-2.5873428E-4,1.782585E-3,-3.740528E-4,-7.018901E-6,9.547773E-4,-2.1905526E-4],"categories":[],"categories_nodes":[],"categories_segments":[],"categories_sizes":[],"default_left":[0,0,0,0,0,0,0],"id":33,"left_children":[1,3,5,-1,-1,-1,-1],"loss_changes":[1.2693867E-4,6.191627E-5,1.6389508E-4,0E0,0E0,0E0,0E0],"parents":[2147483647,0,0,1,1,2,2],"right_children":[2,4,6,-1,-1,-1,-1],"split_conditions":[3E1,3E0,7.79E1,-3.740528E-4,-7.018901E-6,9.547773E-4,-2.1905526E-4],"split_indices":[4,4,1,0,0,0,0],"split_type":[0,0,0,0,0,0,0],"sum_hessian":[2.68E2,2.34E2,3.4E1,3.9E1,1.95E2,2E1,1.4E1],"tree_param":{"num_deleted":"0","num_feature":"5","num_nodes":"7","size_leaf_vector":"1"}},{"base_weights":[5.6401345E-6,-9.411687E-4,3.4341795E-4,-4.458398E-4,9.8196564E-5,2.884581E-4,-2.5777007E-4],"categories":[],"categories_nodes":[],"categories_segments":[],"categories_sizes":[],"default_left":[0,0,0,0,0,0,0],"id":34,"left_children":[1,3,5,-1,-1,-1,-1],"loss_changes":[8.635239E-5,6.722072E-5,1.9030432E-4,0E0,0E0,0E0,0E0],"parents":[2147483647,0,0,1,1,2,2],"right_children":[2,4,6,-1,-1,-1,-1],"split_conditions":[5E-2,7.79E1,7.79E1,-4.458398E-4,9.8196564E-5,2.884581E-4,-2.5777007E-4],"split_indices":[3,1,1,0,0,0,0],"split_type":[0,0,0,0,0,0,0],"sum_hessian":[2.68E2,7E1,1.98E2,4.5E1,2.5E1,1.27E2,7.1E1],"tree_param":{"num_deleted":"0","num_feature":"5","num_nodes":"7","size_leaf_vector":"1"}},{"base_weights":[2.94318E-6,-1.9731096E-4,1.3474226E-3,-2.7162425E-4,-8.1339795E-6,-5.35736E-4,6.056377E-4],"categories":[],"categories_nodes":[],"categories_segments":[],"categories_sizes":[],"default_left":[0,0,0,0,0,0,0],"id":35,"left_children":[1,3,5,-1,-1,-1,-1],"loss_changes":[7.269077E-5,3.1905205E-5,1.1050311E-4,0E0,0E0,0E0,0E0],"parents":[2147483647,0,0,1,1,2,2],"right_children":[2,4,6,-1,-1,-1,-1],"split_conditions":[3E1,3E0,5E-2,-2.7162425E-4,-8.1339795E-6,-5.35736E-4,6.056377E-4],"split_indices":[4,4,3,0,0,0,0],"split_type":[0,0,0,0,0,0,0],"sum_hessian":[2.68E2,2.34E2,3.4E1,3.9E1,1.95E2,7E0,2.7E1],"tree_param":{"num_deleted":"0","num_feature":"5","num_nodes":"7","size_leaf_vector":"1"}},{"base_weights":[1.371698E-6,-1.4548312E-4,9.873578E-4,-2.0046285E-4,-5.9593876E-6,6.01624E-4,-2.2322687E-4],"categories":[],"categories_nodes":[],"categories_segments":[],"categories_sizes":[],"default_left":[0,0,0,0,0,0,0],"id":36,"left_children":[1,3,5,-1,-1,-1,-1],"loss_changes":[3.9093986E-5,1.7385544E-5,8.150676E-5,0E0,0E0,0E0,0E0],"parents":[2147483647,0,0,1,1,2,2],"right_children":[2,4,6,-1,-1,-1,-1],"split_conditions":[3E1,3E0,7.79E1,-2.0046285E-4,-5.9593876E-6,6.01624E-4,-2.2322687E-4],"split_indices":[4,4,1,0,0,0,0],"split_type":[0,0,0,0,0,0,0],"sum_hessian":[2.68E2,2.34E2,3.4E1,3.9E1,1.95E2,2E1,1.4E1],"tree_param":{"num_deleted":"0","num_feature":"5","num_nodes":"7","size_leaf_vector":"1"}},{"base_weights":[1.6416664E-6,-5.929666E-4,2.1378009E-4,-3.0854883E-4,1.10795794E-4,-6.709832E-5,3.2736012E-4],"categories":[],"categories_nodes":[],"categories_segments":[],"categories_sizes":[],"default_left":[0,0,0,0,0,0,0],"id":37,"left_children":[1,3,5,-1,-1,-1,-1],"loss_changes":[3.4058226E-5,4.0110543E-5,9.295589E-5,0E0,0E0,0E0,0E0],"parents":[2147483647,0,0,1,1,2,2],"right_children":[2,4,6,-1,-1,-1,-1],"split_conditions":[5E-2,7.79E1,9.04E1,-3.0854883E-4,1.10795794E-4,-6.709832E-5,3.2736012E-4],"split_indices":[3,1,0,0,0,0,0],"split_type":[0,0,0,0,0,0,0],"sum_hessian":[2.68E2,7E1,1.98E2,4.5E1,2.5E1,1.36E2,6.2E1],"tree_param":{"num_deleted":"0","num_feature":"5","num_nodes":"7","size_leaf_vector":"1"}},{"base_weights":[1.4311199E-6,2.1479429E-4,-3.7911793E-4,-1.490682E-4,6.152447E-4,4.092474E-4,-6.5431936E-4],"categories":[],"categories_nodes":[],"categories_segments":[],"categories_sizes":[],"default_left":[0,0,0,0,0,0,0],"id":38,"left_children":[1,3,5,-1,-1,-1,-1],"loss_changes":[2.1922928E-5,2.7750997E-4,3.8305926E-4,0E0,0E0,0E0,0E0],"parents":[2147483647,0,0,1,1,2,2],"right_children":[2,4,6,-1,-1,-1,-1],"split_conditions":[7.79E1,1.5E-1,1E-1,-1.490682E-4,6.152447E-4,4.092474E-4,-6.5431936E-4],"split_indices":[1,3,3,0,0,0,0],"split_type":[0,0,0,0,0,0,0],"sum_hessian":[2.68E2,1.72E2,9.6E1,1.26E2,4.6E1,5E1,4.6E1],"tree_param":{"num_deleted":"0","num_feature":"5","num_nodes":"7","size_leaf_vector":"1"}},{"base_weights":[1.8701494E-6,-1.1673427E-4,7.981607E-4,3.1072912E-5,-9.6791526E-5,-1.8102989E-4,5.9805094E-4],"categories":[],"categories_nodes":[],"categories_segments":[],"categories_sizes":[],"default_left":[0,0,0,0,0,0,0],"id":39,"left_children":[1,3,5,-1,-1,-1,-1],"loss_changes":[2.5498495E-5,1.3337821E-5,7.504011E-5,0E0,0E0,0E0,0E0],"parents":[2147483647,0,0,1,1,2,2],"right_children":[2,4,6,-1,-1,-1,-1],"split_conditions":[3E1,1E-1,1E-1,3.1072912E-5,-9.6791526E-5,-1.8102989E-4,5.9805094E-4],"split_indices":[4,3,3,0,0,0,0],"split_type":[0,0,0,0,0,0,0],"sum_hessian":[2.68E2,2.34E2,3.4E1,1.2E2,1.14E2,1.7E1,1.7E1],"tree_param":{"num_deleted":"0","num_feature":"5","num_nodes":"7","size_leaf_vector":"1"}},{"base_weights":[2.6728205E-6,-4.957706E-4,1.8049599E-4,-3.9659513E-5,-3.540774E-4,1.297567E-4,-9.66306E-5],"categories":[],"categories_nodes":[],"categories_segments":[],"categories_sizes":[],"default_left":[0,0,0,0,0,0,0],"id":40,"left_children":[1,3,5,-1,-1,-1,-1],"loss_changes":[2.3932243E-5,2.0124631E-5,3.2676966E-5,0E0,0E0,0E0,0E0],"parents":[2147483647,0,0,1,1,2,2],"right_children":[2,4,6,-1,-1,-1,-1],"split_conditions":[5E-2,9.04E1,7.79E1,-3.9659513E-5,-3.540774E-4,1.297567E-4,-9.66306E-5],"split_indices":[3,0,1,0,0,0,0],"split_type":[0,0,0,0,0,0,0],"sum_hessian":[2.68E2,7E1,1.98E2,5E1,2E1,1.27E2,7.1E1],"tree_param":{"num_deleted":"0","num_feature":"5","num_nodes":"7","size_leaf_vector":"1"}},{"base_weights":[6.1245885E-7,-1.5364098E-4,4.0916735E-4,9.137879E-5,-4.30486E-4,-2.5660917E-4,1.1124695E-3],"categories":[],"categories_nodes":[],"categories_segments":[],"categories_sizes":[],"default_left":[0,0,0,0,0,0,0],"id":41,"left_children":[1,3,5,-1,-1,-1,-1],"loss_changes":[1.7015514E-5,1.4070848E-4,3.8058835E-4,0E0,0E0,0E0,0E0],"parents":[2147483647,0,0,1,1,2,2],"right_children":[2,4,6,-1,-1,-1,-1],"split_conditions":[2.1E1,1.5E-1,1.5E-1,9.137879E-5,-4.30486E-4,-2.5660917E-4,1.1124695E-3],"split_indices":[4,3,3,0,0,0,0],"split_type":[0,0,0,0,0,0,0],"sum_hessian":[2.68E2,1.95E2,7.3E1,1.46E2,4.9E1,5.4E1,1.9E1],"tree_param":{"num_deleted":"0","num_feature":"5","num_nodes":"7","size_leaf_vector":"1"}},{"base_weights":[2.3696732E-6,-3.7976948E-4,1.3869887E-4,-2.9866447E-4,-7.671836E-6,-3.0031095E-5,1.830277E-4],"categories":[],"categories_nodes":[],"categories_segments":[],"categories_sizes":[],"default_left":[0,0,0,0,0,0,0],"id":42,"left_children":[1,3,5,-1,-1,-1,-1],"loss_changes":[1.4066692E-5,1.8215174E-5,2.7113107E-5,0E0,0E0,0E0,0E0],"parents":[2147483647,0,0,1,1,2,2],"right_children":[2,4,6,-1,-1,-1,-1],"split_conditions":[5E-2,7E0,9.04E1,-2.9866447E-4,-7.671836E-6,-3.0031095E-5,1.830277E-4],"split_indices":[3,4,0,0,0,0,0],"split_type":[0,0,0,0,0,0,0],"sum_hessian":[2.68E2,7E1,1.98E2,2.2E1,4.8E1,1.36E2,6.2E1],"tree_param":{"num_deleted":"0","num_feature":"5","num_nodes":"7","size_leaf_vector":"1"}},{"base_weights":[1.1642147E-6,-7.3919604E-5,5.0526514E-4,3.6120968E-5,-7.8593934E-5,-5.7424797E-5,5.108342E-4],"categories":[],"categories_nodes":[],"categories_segments":[],"categories_sizes":[],"default_left":[0,0,0,0,0,0,0],"id":43,"left_children":[1,3,5,-1,-1,-1,-1],"loss_changes":[1.02189515E-5,1.0741046E-5,3.5531637E-5,0E0,0E0,0E0,0E0],"parents":[2147483647,0,0,1,1,2,2],"right_children":[2,4,6,-1,-1,-1,-1],"split_conditions":[3E1,1E-1,9.04E1,3.6120968E-5,-7.8593934E-5,-5.7424797E-5,5.108342E-4],"split_indices":[4,3,0,0,0,0,0],"split_type":[0,0,0,0,0,0,0],"sum_hessian":[2.68E2,2.34E2,3.4E1,1.2E2,1.14E2,2.3E1,1.1E1],"tree_param":{"num_deleted":"0","num_feature":"5","num_nodes":"7","size_leaf_vector":"1"}},{"base_weights":[2.378868E-6,-3.2444063E-4,1.1897085E-4,-9.949369E-6,-2.7058224E-4,1.0032655E-7,2.2658342E-4],"categories":[],"categories_nodes":[],"categories_segments":[],"categories_sizes":[],"default_left":[0,0,0,0,0,0,0],"id":44,"left_children":[1,3,5,-1,-1,-1,-1],"loss_changes":[1.0288718E-5,1.389114E-5,1.7093305E-5,0E0,0E0,0E0,0E0],"parents":[2147483647,0,0,1,1,2,2],"right_children":[2,4,6,-1,-1,-1,-1],"split_conditions":[5E-2,9.04E1,3E1,-9.949369E-6,-2.7058224E-4,1.0032655E-7,2.2658342E-4],"split_indices":[3,0,4,0,0,0,0],"split_type":[0,0,0,0,0,0,0],"sum_hessian":[2.68E2,7E1,1.98E2,5E1,2E1,1.71E2,2.7E1],"tree_param":{"num_deleted":"0","num_feature":"5","num_nodes":"7","size_leaf_vector":"1"}},{"base_weights":[1.543739E-6,-2.4121291E-4,8.814765E-5,-2.1035896E-4,4.8249226E-6,-1.5145284E-4,5.3248834E-5],"categories":[],"categories_nodes":[],"categories_segments":[],"categories_sizes":[],"default_left":[0,0,0,0,0,0,0],"id":45,"left_children":[1,3,5,-1,-1,-1,-1],"loss_changes":[5.676631E-6,9.981073E-6,1.4382329E-5,0E0,0E0,0E0,0E0],"parents":[2147483647,0,0,1,1,2,2],"right_children":[2,4,6,-1,-1,-1,-1],"split_conditions":[5E-2,7E0,3E0,-2.1035896E-4,4.8249226E-6,-1.5145284E-4,5.3248834E-5],"split_indices":[3,4,4,0,0,0,0],"split_type":[0,0,0,0,0,0,0],"sum_hessian":[2.68E2,7E1,1.98E2,2.2E1,4.8E1,2.8E1,1.7E2],"tree_param":{"num_deleted":"0","num_feature":"5","num_nodes":"7","size_leaf_vector":"1"}},{"base_weights":[-8.014914E-10,1.07233966E-4,-1.9125456E-4,-1.19002914E-4,4.2762133E-4,1.9918672E-4,-8.662563E-4],"categories":[],"categories_nodes":[],"categories_segments":[],"categories_sizes":[],"default_left":[0,0,0,0,0,0,0],"id":46,"left_children":[1,3,5,-1,-1,-1,-1],"loss_changes":[5.537444E-6,1.4195504E-4,2.767084E-4,0E0,0E0,0E0,0E0],"parents":[2147483647,0,0,1,1,2,2],"right_children":[2,4,6,-1,-1,-1,-1],"split_conditions":[7.79E1,1.5E-1,1.5E-1,-1.19002914E-4,4.2762133E-4,1.9918672E-4,-8.662563E-4],"split_indices":[1,3,3,0,0,0,0],"split_type":[0,0,0,0,0,0,0],"sum_hessian":[2.68E2,1.72E2,9.6E1,1.26E2,4.6E1,7.4E1,2.2E1],"tree_param":{"num_deleted":"0","num_feature":"5","num_nodes":"7","size_leaf_vector":"1"}},{"base_weights":[-1.33384E-6,2.0656039E-4,-8.8861234E-5,-2.75486E-4,6.1633514E-4,1.4453765E-4,-3.2815896E-4],"categories":[],"categories_nodes":[],"categories_segments":[],"categories_sizes":[],"default_left":[0,0,0,0,0,0,0],"id":47,"left_children":[1,3,5,-1,-1,-1,-1],"loss_changes":[4.9131977E-6,2.0803181E-4,1.3551151E-4,0E0,0E0,0E0,0E0],"parents":[2147483647,0,0,1,1,2,2],"right_children":[2,4,6,-1,-1,-1,-1],"split_conditions":[7E0,7.79E1,7.79E1,-2.75486E-4,6.1633514E-4,1.4453765E-4,-3.2815896E-4],"split_indices":[4,1,1,0,0,0,0],"split_type":[0,0,0,0,0,0,0],"sum_hessian":[2.68E2,7.9E1,1.89E2,5E1,2.9E1,1.22E2,6.7E1],"tree_param":{"num_deleted":"0","num_feature":"5","num_nodes":"7","size_leaf_vector":"1"}},{"base_weights":[-3.9357033E-7,-7.578783E-5,1.9930465E-4,8.679995E-5,-3.350203E-4,-2.2984845E-4,8.3023193E-4],"categories":[],"categories_nodes":[],"categories_segments":[],"categories_sizes":[],"default_left":[0,0,0,0,0,0,0],"id":48,"left_children":[1,3,5,-1,-1,-1,-1],"loss_changes":[4.0651953E-6,9.1940026E-5,2.2823915E-4,0E0,0E0,0E0,0E0],"parents":[2147483647,0,0,1,1,2,2],"right_children":[2,4,6,-1,-1,-1,-1],"split_conditions":[2.1E1,1.5E-1,1.5E-1,8.679995E-5,-3.350203E-4,-2.2984845E-4,8.3023193E-4],"split_indices":[4,3,3,0,0,0,0],"split_type":[0,0,0,0,0,0,0],"sum_hessian":[2.68E2,1.95E2,7.3E1,1.46E2,4.9E1,5.4E1,1.9E1],"tree_param":{"num_deleted":"0","num_feature":"5","num_nodes":"7","size_leaf_vector":"1"}},{"base_weights":[1.0145452E-6,1.7505966E-4,-7.2272946E-5,3.7393125E-4,-2.8920153E-4,1.0811367E-4,-2.4982015E-4],"categories":[],"categories_nodes":[],"categories_segments":[],"categories_sizes":[],"default_left":[0,0,0,0,0,0,0],"id":49,"left_children":[1,3,5,-1,-1,-1,-1],"loss_changes":[3.4438358E-6,1.2328461E-4,7.769853E-5,0E0,0E0,0E0,0E0],"parents":[2147483647,0,0,1,1,2,2],"right_children":[2,4,6,-1,-1,-1,-1],"split_conditions":[7E0,1E-1,7.79E1,3.7393125E-4,-2.8920153E-4,1.0811367E-4,-2.4982015E-4],"split_indices":[4,3,1,0,0,0,0],"split_type":[0,0,0,0,0,0,0],"sum_hessian":[2.68E2,7.9E1,1.89E2,4E1,3.9E1,1.22E2,6.7E1],"tree_param":{"num_deleted":"0","num_feature":"5","num_nodes":"7","size_leaf_vector":"1"}},{"base_weights":[5.291366E-7,-2.9115338E-4,1.0459412E-4,-2.8640765E-4,2.1077172E-5,1.6141585E-4,-2.654421E-5],"categories":[],"categories_nodes":[],"categories_segments":[],"categories_sizes":[],"default_left":[0,0,0,0,0,0,0],"id":50,"left_children":[1,3,5,-1,-1,-1,-1],"loss_changes":[8.195661E-6,2.0413605E-5,2.0139027E-5,0E0,0E0,0E0,0E0],"parents":[2147483647,0,0,1,1,2,2],"right_children":[2,4,6,-1,-1,-1,-1],"split_conditions":[5E-2,7E0,7E0,-2.8640765E-4,2.1077172E-5,1.6141585E-4,-2.654421E-5],"split_indices":[3,4,4,0,0,0,0],"split_type":[0,0,0,0,0,0,0],"sum_hessian":[2.68E2,7E1,1.98E2,2.2E1,4.8E1,5.7E1,1.41E2],"tree_param":{"num_deleted":"0","num_feature":"5","num_nodes":"7","size_leaf_vector":"1"}},{"base_weights":[-9.4666E-8,-2.1665201E-4,7.7169985E-5,-1.4779314E-4,1.0250844E-4,-5.869345E-6,1.8342676E-4],"categories":[],"categories_nodes":[],"categories_segments":[],"categories_sizes":[],"default_left":[0,0,0,0,0,0,0],"id":51,"left_children":[1,3,5,-1,-1,-1,-1],"loss_changes":[4.5176885E-6,1.4367615E-5,1.1944837E-5,0E0,0E0,0E0,0E0],"parents":[2147483647,0,0,1,1,2,2],"right_children":[2,4,6,-1,-1,-1,-1],"split_conditions":[5E-2,1.5E1,3E1,-1.4779314E-4,1.0250844E-4,-5.869345E-6,1.8342676E-4],"split_indices":[3,4,4,0,0,0,0],"split_type":[0,0,0,0,0,0,0],"sum_hessian":[2.68E2,7E1,1.98E2,4.5E1,2.5E1,1.71E2,2.7E1],"tree_param":{"num_deleted":"0","num_feature":"5","num_nodes":"7","size_leaf_vector":"1"}},{"base_weights":[4.2202979E-7,-1.5908031E-4,5.732778E-5,-1.7480958E-4,2.011638E-5,1.2034195E-4,-2.756627E-5],"categories":[],"categories_nodes":[],"categories_segments":[],"categories_sizes":[],"default_left":[0,0,0,0,0,0,0],"id":52,"left_children":[1,3,5,-1,-1,-1,-1],"loss_changes":[2.450725E-6,8.212376E-6,1.2474203E-5,0E0,0E0,0E0,0E0],"parents":[2147483647,0,0,1,1,2,2],"right_children":[2,4,6,-1,-1,-1,-1],"split_conditions":[5E-2,7E0,7E0,-1.7480958E-4,2.011638E-5,1.2034195E-4,-2.756627E-5],"split_indices":[3,4,4,0,0,0,0],"split_type":[0,0,0,0,0,0,0],"sum_hessian":[2.68E2,7E1,1.98E2,2.2E1,4.8E1,5.7E1,1.41E2],"tree_param":{"num_deleted":"0","num_feature":"5","num_nodes":"7","size_leaf_vector":"1"}},{"base_weights":[7.62291E-8,-2.4745645E-4,4.3125063E-5,2.6364383E-4,-3.7774123E-4,1.1729576E-4,-1.1283825E-5],"categories":[],"categories_nodes":[],"categories_segments":[],"categories_sizes":[],"default_left":[0,0,0,0,0,0,0],"id":53,"left_children":[1,3,5,-1,-1,-1,-1],"loss_changes":[2.8771337E-6,5.83061E-5,7.7200675E-6,0E0,0E0,0E0,0E0],"parents":[2147483647,0,0,1,1,2,2],"right_children":[2,4,6,-1,-1,-1,-1],"split_conditions":[3E0,1E-1,7E0,2.6364383E-4,-3.7774123E-4,1.1729576E-4,-1.1283825E-5],"split_indices":[4,3,4,0,0,0,0],"split_type":[0,0,0,0,0,0,0],"sum_hessian":[2.68E2,3.9E1,2.29E2,1.9E1,2E1,4E1,1.89E2],"tree_param":{"num_deleted":"0","num_feature":"5","num_nodes":"7","size_leaf_vector":"1"}},{"base_weights":[2.9004726E-8,-1.6989918E-4,6.0656505E-5,-1.7883412E-4,1.779317E-5,-4.904385E-6,1.4596322E-4],"categories":[],"categories_nodes":[],"categories_segments":[],"categories_sizes":[],"default_left":[0,0,0,0,0,0,0],"id":54,"left_children":[1,3,5,-1,-1,-1,-1],"loss_changes":[2.7816302E-6,8.353285E-6,7.5874286E-6,0E0,0E0,0E0,0E0],"parents":[2147483647,0,0,1,1,2,2],"right_children":[2,4,6,-1,-1,-1,-1],"split_conditions":[5E-2,7E0,3E1,-1.7883412E-4,1.779317E-5,-4.904385E-6,1.4596322E-4],"split_indices":[3,4,4,0,0,0,0],"split_type":[0,0,0,0,0,0,0],"sum_hessian":[2.68E2,7E1,1.98E2,2.2E1,4.8E1,1.71E2,2.7E1],"tree_param":{"num_deleted":"0","num_feature":"5","num_nodes":"7","size_leaf_vector":"1"}},{"base_weights":[-5.0290552E-8,1.2583614E-4,-5.305484E-5,-4.0784478E-4,2.7947116E-4,1.7309652E-4,-1.0635717E-4],"categories":[],"categories_nodes":[],"categories_segments":[],"categories_sizes":[],"default_left":[0,0,0,0,0,0,0],"id":55,"left_children":[1,3,5,-1,-1,-1,-1],"loss_changes":[1.8015932E-6,1.2179488E-4,4.5663157E-5,0E0,0E0,0E0,0E0],"parents":[2147483647,0,0,1,1,2,2],"right_children":[2,4,6,-1,-1,-1,-1],"split_conditions":[7E0,6.95E1,6.95E1,-4.0784478E-4,2.7947116E-4,1.7309652E-4,-1.0635717E-4],"split_indices":[4,0,0,0,0,0,0],"split_type":[0,0,0,0,0,0,0],"sum_hessian":[2.68E2,7.9E1,1.89E2,2.8E1,5.1E1,6.2E1,1.27E2],"tree_param":{"num_deleted":"0","num_feature":"5","num_nodes":"7","size_leaf_vector":"1"}},{"base_weights":[-2.6289436E-7,-1.3067051E-4,4.6265766E-5,-6.8265376E-7,-3.0615358E-4,-1.17791424E-4,3.444367E-5],"categories":[],"categories_nodes":[],"categories_segments":[],"categories_sizes":[],"default_left":[0,0,0,0,0,0,0],"id":56,"left_children":[1,3,5,-1,-1,-1,-1],"loss_changes":[1.6382545E-6,9.173531E-6,7.9567035E-6,0E0,0E0,0E0,0E0],"parents":[2147483647,0,0,1,1,2,2],"right_children":[2,4,6,-1,-1,-1,-1],"split_conditions":[5E-2,3E1,3E0,-6.8265376E-7,-3.0615358E-4,-1.17791424E-4,3.444367E-5],"split_indices":[3,4,4,0,0,0,0],"split_type":[0,0,0,0,0,0,0],"sum_hessian":[2.68E2,7E1,1.98E2,6.3E1,7E0,2.8E1,1.7E2],"tree_param":{"num_deleted":"0","num_feature":"5","num_nodes":"7","size_leaf_vector":"1"}},{"base_weights":[-1.6448386E-6,1.1935037E-4,-5.258153E-5,3.068807E-4,-2.5041317E-4,6.835405E-5,-1.6311795E-4],"categories":[],"categories_nodes":[],"categories_segments":[],"categories_sizes":[],"default_left":[0,0,0,0,0,0,0],"id":57,"left_children":[1,3,5,-1,-1,-1,-1],"loss_changes":[1.6641484E-6,8.707889E-5,3.2493503E-5,0E0,0E0,0E0,0E0],"parents":[2147483647,0,0,1,1,2,2],"right_children":[2,4,6,-1,-1,-1,-1],"split_conditions":[7E0,1E-1,7.79E1,3.068807E-4,-2.5041317E-4,6.835405E-5,-1.6311795E-4],"split_indices":[4,3,1,0,0,0,0],"split_type":[0,0,0,0,0,0,0],"sum_hessian":[2.68E2,7.9E1,1.89E2,4E1,3.9E1,1.22E2,6.7E1],"tree_param":{"num_deleted":"0","num_feature":"5","num_nodes":"7","size_leaf_vector":"1"}},{"base_weights":[-1.3517922E-6,-1.8576127E-4,6.444934E-5,-2.1916111E-4,3.0546347E-5,1.195185E-4,-2.4548224E-5],"categories":[],"categories_nodes":[],"categories_segments":[],"categories_sizes":[],"default_left":[0,0,0,0,0,0,0],"id":58,"left_children":[1,3,5,-1,-1,-1,-1],"loss_changes":[3.276113E-6,1.3483899E-5,1.1833625E-5,0E0,0E0,0E0,0E0],"parents":[2147483647,0,0,1,1,2,2],"right_children":[2,4,6,-1,-1,-1,-1],"split_conditions":[5E-2,7E0,7E0,-2.1916111E-4,3.0546347E-5,1.195185E-4,-2.4548224E-5],"split_indices":[3,4,4,0,0,0,0],"split_type":[0,0,0,0,0,0,0],"sum_hessian":[2.68E2,7E1,1.98E2,2.2E1,4.8E1,5.7E1,1.41E2],"tree_param":{"num_deleted":"0","num_feature":"5","num_nodes":"7","size_leaf_vector":"1"}},{"base_weights":[-1.3335916E-6,-7.453534E-5,1.2923585E-4,-1.4424117E-4,3.160385E-4,2.1830306E-4,-5.654045E-4],"categories":[],"categories_nodes":[],"categories_segments":[],"categories_sizes":[],"default_left":[0,0,0,0,0,0,0],"id":59,"left_children":[1,3,5,-1,-1,-1,-1],"loss_changes":[2.5807108E-6,1.0065324E-4,1.4971966E-4,0E0,0E0,0E0,0E0],"parents":[2147483647,0,0,1,1,2,2],"right_children":[2,4,6,-1,-1,-1,-1],"split_conditions":[7.79E1,1.5E-1,1.5E-1,-1.4424117E-4,3.160385E-4,2.1830306E-4,-5.654045E-4],"split_indices":[1,3,3,0,0,0,0],"split_type":[0,0,0,0,0,0,0],"sum_hessian":[2.68E2,1.72E2,9.6E1,1.26E2,4.6E1,7.4E1,2.2E1],"tree_param":{"num_deleted":"0","num_feature":"5","num_nodes":"7","size_leaf_vector":"1"}},{"base_weights":[-1.623548E-6,-6.204576E-5,1.5843559E-4,5.5505578E-5,-2.2854013E-4,-1.7386126E-4,6.3563517E-4],"categories":[],"categories_nodes":[],"categories_segments":[],"categories_sizes":[],"default_left":[0,0,0,0,0,0,0],"id":60,"left_children":[1,3,5,-1,-1,-1,-1],"loss_changes":[2.6113635E-6,4.168822E-5,1.3308716E-4,0E0,0E0,0E0,0E0],"parents":[2147483647,0,0,1,1,2,2],"right_children":[2,4,6,-1,-1,-1,-1],"split_conditions":[2.1E1,1.5E-1,1.5E-1,5.5505578E-5,-2.2854013E-4,-1.7386126E-4,6.3563517E-4],"split_indices":[4,3,3,0,0,0,0],"split_type":[0,0,0,0,0,0,0],"sum_hessian":[2.68E2,1.95E2,7.3E1,1.46E2,4.9E1,5.4E1,1.9E1],"tree_param":{"num_deleted":"0","num_feature":"5","num_nodes":"7","size_leaf_vector":"1"}},{"base_weights":[-1.0791527E-7,-1.26981E-4,4.5158904E-5,-9.761174E-5,1.7330088E-4,1.0013072E-4,-2.3893319E-5],"categories":[],"categories_nodes":[],"categories_segments":[],"categories_sizes":[],"default_left":[0,0,0,0,0,0,0],"id":61,"left_children":[1,3,5,-1,-1,-1,-1],"loss_changes":[1.5506392E-6,1.3184687E-5,8.771085E-6,0E0,0E0,0E0,0E0],"parents":[2147483647,0,0,1,1,2,2],"right_children":[2,4,6,-1,-1,-1,-1],"split_conditions":[5E-2,2.1E1,7E0,-9.761174E-5,1.7330088E-4,1.0013072E-4,-2.3893319E-5],"split_indices":[3,4,4,0,0,0,0],"split_type":[0,0,0,0,0,0,0],"sum_hessian":[2.68E2,7E1,1.98E2,5.4E1,1.6E1,5.7E1,1.41E2],"tree_param":{"num_deleted":"0","num_feature":"5","num_nodes":"7","size_leaf_vector":"1"}},{"base_weights":[4.8854014E-7,-1.5837708E-4,2.8115219E-5,-2.2066018E-4,3.9140755E-4,3.2453987E-5,-6.684436E-5],"categories":[],"categories_nodes":[],"categories_segments":[],"categories_sizes":[],"default_left":[0,0,0,0,0,0,0],"id":62,"left_children":[1,3,5,-1,-1,-1,-1],"loss_changes":[1.1850749E-6,4.4015807E-5,5.931223E-6,0E0,0E0,0E0,0E0],"parents":[2147483647,0,0,1,1,2,2],"right_children":[2,4,6,-1,-1,-1,-1],"split_conditions":[3E0,1.5E-1,1.5E-1,-2.2066018E-4,3.9140755E-4,3.2453987E-5,-6.684436E-5],"split_indices":[4,3,3,0,0,0,0],"split_type":[0,0,0,0,0,0,0],"sum_hessian":[2.68E2,3.9E1,2.29E2,2.8E1,1.1E1,1.72E2,5.7E1],"tree_param":{"num_deleted":"0","num_feature":"5","num_nodes":"7","size_leaf_vector":"1"}},{"base_weights":[8.645469E-7,-2.2875309E-5,1.6023601E-4,-2.9848754E-5,3.761921E-5,-7.072803E-5,2.6703565E-4],"categories":[],"categories_nodes":[],"categories_segments":[],"categories_sizes":[],"default_left":[0,0,0,0,0,0,0],"id":63,"left_children":[1,3,5,-1,-1,-1,-1],"loss_changes":[1.021415E-6,3.3918895E-6,1.2615752E-5,0E0,0E0,0E0,0E0],"parents":[2147483647,0,0,1,1,2,2],"right_children":[2,4,6,-1,-1,-1,-1],"split_conditions":[3E1,7.79E1,9.04E1,-2.9848754E-5,3.761921E-5,-7.072803E-5,2.6703565E-4],"split_indices":[4,1,0,0,0,0,0],"split_type":[0,0,0,0,0,0,0],"sum_hessian":[2.68E2,2.34E2,3.4E1,1.52E2,8.2E1,2.3E1,1.1E1],"tree_param":{"num_deleted":"0","num_feature":"5","num_nodes":"7","size_leaf_vector":"1"}},{"base_weights":[1.3960604E-6],"categories":[],"categories_nodes":[],"categories_segments":[],"categories_sizes":[],"default_left":[0],"id":64,"left_children":[-1],"loss_changes":[0E0],"parents":[2147483647],"right_children":[-1],"split_conditions":[3.751253E-7],"split_indices":[0],"split_type":[0],"sum_hessian":[2.68E2],"tree_param":{"num_deleted":"0","num_feature":"5","num_nodes":"1","size_leaf_vector":"1"}},{"base_weights":[1.018457E-6],"categories":[],"categories_nodes":[],"categories_segments":[],"categories_sizes":[],"default_left":[0],"id":65,"left_children":[-1],"loss_changes":[0E0],"parents":[2147483647],"right_children":[-1],"split_conditions":[2.7366224E-7],"split_indices":[0],"split_type":[0],"sum_hessian":[2.68E2],"tree_param":{"num_deleted":"0","num_feature":"5","num_nodes":"1","size_leaf_vector":"1"}},{"base_weights":[7.473777E-7],"categories":[],"categories_nodes":[],"categories_segments":[],"categories_sizes":[],"default_left":[0],"id":66,"left_children":[-1],"loss_changes":[0E0],"parents":[2147483647],"right_children":[-1],"split_conditions":[2.0082247E-7],"split_indices":[0],"split_type":[0],"sum_hessian":[2.68E2],"tree_param":{"num_deleted":"0","num_feature":"5","num_nodes":"1","size_leaf_vector":"1"}},{"base_weights":[5.468569E-7],"categories":[],"categories_nodes":[],"categories_segments":[],"categories_sizes":[],"default_left":[0],"id":67,"left_children":[-1],"loss_changes":[0E0],"parents":[2147483647],"right_children":[-1],"split_conditions":[1.4694196E-7],"split_indices":[0],"split_type":[0],"sum_hessian":[2.68E2],"tree_param":{"num_deleted":"0","num_feature":"5","num_nodes":"1","size_leaf_vector":"1"}},{"base_weights":[4.0140782E-7],"categories":[],"categories_nodes":[],"categories_segments":[],"categories_sizes":[],"default_left":[0],"id":68,"left_children":[-1],"loss_changes":[0E0],"parents":[2147483647],"right_children":[-1],"split_conditions":[1.0785939E-7],"split_indices":[0],"split_type":[0],"sum_hessian":[2.68E2],"tree_param":{"num_deleted":"0","num_feature":"5","num_nodes":"1","size_leaf_vector":"1"}},{"base_weights":[2.882344E-7],"categories":[],"categories_nodes":[],"categories_segments":[],"categories_sizes":[],"default_left":[0],"id":69,"left_children":[-1],"loss_changes":[0E0],"parents":[2147483647],"right_children":[-1],"split_conditions":[7.744938E-8],"split_indices":[0],"split_type":[0],"sum_hessian":[2.68E2],"tree_param":{"num_deleted":"0","num_feature":"5","num_nodes":"1","size_leaf_vector":"1"}},{"base_weights":[2.0752654E-7],"categories":[],"categories_nodes":[],"categories_segments":[],"categories_sizes":[],"default_left":[0],"id":70,"left_children":[-1],"loss_changes":[0E0],"parents":[2147483647],"right_children":[-1],"split_conditions":[5.5762957E-8],"split_indices":[0],"split_type":[0],"sum_hessian":[2.68E2],"tree_param":{"num_deleted":"0","num_feature":"5","num_nodes":"1","size_leaf_vector":"1"}},{"base_weights":[1.4918731E-7],"categories":[],"categories_nodes":[],"categories_segments":[],"categories_sizes":[],"default_left":[0],"id":71,"left_children":[-1],"loss_changes":[0E0],"parents":[2147483647],"right_children":[-1],"split_conditions":[4.0087045E-8],"split_indices":[0],"split_type":[0],"sum_hessian":[2.68E2],"tree_param":{"num_deleted":"0","num_feature":"5","num_nodes":"1","size_leaf_vector":"1"}},{"base_weights":[1.1192056E-7],"categories":[],"categories_nodes":[],"categories_segments":[],"categories_sizes":[],"default_left":[0],"id":72,"left_children":[-1],"loss_changes":[0E0],"parents":[2147483647],"right_children":[-1],"split_conditions":[3.0073366E-8],"split_indices":[0],"split_type":[0],"sum_hessian":[2.68E2],"tree_param":{"num_deleted":"0","num_feature":"5","num_nodes":"1","size_leaf_vector":"1"}},{"base_weights":[7.945064E-8],"categories":[],"categories_nodes":[],"categories_segments":[],"categories_sizes":[],"default_left":[0],"id":73,"left_children":[-1],"loss_changes":[0E0],"parents":[2147483647],"right_children":[-1],"split_conditions":[2.1348608E-8],"split_indices":[0],"split_type":[0],"sum_hessian":[2.68E2],"tree_param":{"num_deleted":"0","num_feature":"5","num_nodes":"1","size_leaf_vector":"1"}},{"base_weights":[5.70989E-8],"categories":[],"categories_nodes":[],"categories_segments":[],"categories_sizes":[],"default_left":[0],"id":74,"left_children":[-1],"loss_changes":[0E0],"parents":[2147483647],"right_children":[-1],"split_conditions":[1.5342634E-8],"split_indices":[0],"split_type":[0],"sum_hessian":[2.68E2],"tree_param":{"num_deleted":"0","num_feature":"5","num_nodes":"1","size_leaf_vector":"1"}},{"base_weights":[3.6036816E-8],"categories":[],"categories_nodes":[],"categories_segments":[],"categories_sizes":[],"default_left":[0],"id":75,"left_children":[-1],"loss_changes":[0E0],"parents":[2147483647],"right_children":[-1],"split_conditions":[9.683193E-9],"split_indices":[0],"split_type":[0],"sum_hessian":[2.68E2],"tree_param":{"num_deleted":"0","num_feature":"5","num_nodes":"1","size_leaf_vector":"1"}},{"base_weights":[3.1243882E-8],"categories":[],"categories_nodes":[],"categories_segments":[],"categories_sizes":[],"default_left":[0],"id":76,"left_children":[-1],"loss_changes":[0E0],"parents":[2147483647],"right_children":[-1],"split_conditions":[8.395318E-9],"split_indices":[0],"split_type":[0],"sum_hessian":[2.68E2],"tree_param":{"num_deleted":"0","num_feature":"5","num_nodes":"1","size_leaf_vector":"1"}},{"base_weights":[2.6673822E-8],"categories":[],"categories_nodes":[],"categories_segments":[],"categories_sizes":[],"default_left":[0],"id":77,"left_children":[-1],"loss_changes":[0E0],"parents":[2147483647],"right_children":[-1],"split_conditions":[7.1673303E-9],"split_indices":[0],"split_type":[0],"sum_hessian":[2.68E2],"tree_param":{"num_deleted":"0","num_feature":"5","num_nodes":"1","size_leaf_vector":"1"}},{"base_weights":[2.535344E-8],"categories":[],"categories_nodes":[],"categories_segments":[],"categories_sizes":[],"default_left":[0],"id":78,"left_children":[-1],"loss_changes":[0E0],"parents":[2147483647],"right_children":[-1],"split_conditions":[6.81254E-9],"split_indices":[0],"split_type":[0],"sum_hessian":[2.68E2],"tree_param":{"num_deleted":"0","num_feature":"5","num_nodes":"1","size_leaf_vector":"1"}},{"base_weights":[2.4042578E-8],"categories":[],"categories_nodes":[],"categories_segments":[],"categories_sizes":[],"default_left":[0],"id":79,"left_children":[-1],"loss_changes":[0E0],"parents":[2147483647],"right_children":[-1],"split_conditions":[6.4603074E-9],"split_indices":[0],"split_type":[0],"sum_hessian":[2.68E2],"tree_param":{"num_deleted":"0","num_feature":"5","num_nodes":"1","size_leaf_vector":"1"}},{"base_weights":[2.2741235E-8],"categories":[],"categories_nodes":[],"categories_segments":[],"categories_sizes":[],"default_left":[0],"id":80,"left_children":[-1],"loss_changes":[0E0],"parents":[2147483647],"right_children":[-1],"split_conditions":[6.110633E-9],"split_indices":[0],"split_type":[0],"sum_hessian":[2.68E2],"tree_param":{"num_deleted":"0","num_feature":"5","num_nodes":"1","size_leaf_vector":"1"}},{"base_weights":[2.1454609E-8],"categories":[],"categories_nodes":[],"categories_segments":[],"categories_sizes":[],"default_left":[0],"id":81,"left_children":[-1],"loss_changes":[0E0],"parents":[2147483647],"right_children":[-1],"split_conditions":[5.764913E-9],"split_indices":[0],"split_type":[0],"sum_hessian":[2.68E2],"tree_param":{"num_deleted":"0","num_feature":"5","num_nodes":"1","size_leaf_vector":"1"}},{"base_weights":[2.017404E-8],"categories":[],"categories_nodes":[],"categories_segments":[],"categories_sizes":[],"default_left":[0],"id":82,"left_children":[-1],"loss_changes":[0E0],"parents":[2147483647],"right_children":[-1],"split_conditions":[5.4208207E-9],"split_indices":[0],"split_type":[0],"sum_hessian":[2.68E2],"tree_param":{"num_deleted":"0","num_feature":"5","num_nodes":"1","size_leaf_vector":"1"}},{"base_weights":[1.9086487E-8],"categories":[],"categories_nodes":[],"categories_segments":[],"categories_sizes":[],"default_left":[0],"id":83,"left_children":[-1],"loss_changes":[0E0],"parents":[2147483647],"right_children":[-1],"split_conditions":[5.128592E-9],"split_indices":[0],"split_type":[0],"sum_hessian":[2.68E2],"tree_param":{"num_deleted":"0","num_feature":"5","num_nodes":"1","size_leaf_vector":"1"}},{"base_weights":[1.800456E-8],"categories":[],"categories_nodes":[],"categories_segments":[],"categories_sizes":[],"default_left":[0],"id":84,"left_children":[-1],"loss_changes":[0E0],"parents":[2147483647],"right_children":[-1],"split_conditions":[4.837875E-9],"split_indices":[0],"split_type":[0],"sum_hessian":[2.68E2],"tree_param":{"num_deleted":"0","num_feature":"5","num_nodes":"1","size_leaf_vector":"1"}},{"base_weights":[1.6936914E-8],"categories":[],"categories_nodes":[],"categories_segments":[],"categories_sizes":[],"default_left":[0],"id":85,"left_children":[-1],"loss_changes":[0E0],"parents":[2147483647],"right_children":[-1],"split_conditions":[4.550996E-9],"split_indices":[0],"split_type":[0],"sum_hessian":[2.68E2],"tree_param":{"num_deleted":"0","num_feature":"5","num_nodes":"1","size_leaf_vector":"1"}},{"base_weights":[1.5870567E-8],"categories":[],"categories_nodes":[],"categories_segments":[],"categories_sizes":[],"default_left":[0],"id":86,"left_children":[-1],"loss_changes":[0E0],"parents":[2147483647],"right_children":[-1],"split_conditions":[4.2644652E-9],"split_indices":[0],"split_type":[0],"sum_hessian":[2.68E2],"tree_param":{"num_deleted":"0","num_feature":"5","num_nodes":"1","size_leaf_vector":"1"}},{"base_weights":[1.4814607E-8],"categories":[],"categories_nodes":[],"categories_segments":[],"categories_sizes":[],"default_left":[0],"id":87,"left_children":[-1],"loss_changes":[0E0],"parents":[2147483647],"right_children":[-1],"split_conditions":[3.980726E-9],"split_indices":[0],"split_type":[0],"sum_hessian":[2.68E2],"tree_param":{"num_deleted":"0","num_feature":"5","num_nodes":"1","size_leaf_vector":"1"}},{"base_weights":[1.3772495E-8],"categories":[],"categories_nodes":[],"categories_segments":[],"categories_sizes":[],"default_left":[0],"id":88,"left_children":[-1],"loss_changes":[0E0],"parents":[2147483647],"right_children":[-1],"split_conditions":[3.7007077E-9],"split_indices":[0],"split_type":[0],"sum_hessian":[2.68E2],"tree_param":{"num_deleted":"0","num_feature":"5","num_nodes":"1","size_leaf_vector":"1"}},{"base_weights":[1.34816736E-8],"categories":[],"categories_nodes":[],"categories_segments":[],"categories_sizes":[],"default_left":[0],"id":89,"left_children":[-1],"loss_changes":[0E0],"parents":[2147483647],"right_children":[-1],"split_conditions":[3.6225631E-9],"split_indices":[0],"split_type":[0],"sum_hessian":[2.68E2],"tree_param":{"num_deleted":"0","num_feature":"5","num_nodes":"1","size_leaf_vector":"1"}},{"base_weights":[1.31912845E-8],"categories":[],"categories_nodes":[],"categories_segments":[],"categories_sizes":[],"default_left":[0],"id":90,"left_children":[-1],"loss_changes":[0E0],"parents":[2147483647],"right_children":[-1],"split_conditions":[3.5445347E-9],"split_indices":[0],"split_type":[0],"sum_hessian":[2.68E2],"tree_param":{"num_deleted":"0","num_feature":"5","num_nodes":"1","size_leaf_vector":"1"}},{"base_weights":[1.2903492E-8],"categories":[],"categories_nodes":[],"categories_segments":[],"categories_sizes":[],"default_left":[0],"id":91,"left_children":[-1],"loss_changes":[0E0],"parents":[2147483647],"right_children":[-1],"split_conditions":[3.467204E-9],"split_indices":[0],"split_type":[0],"sum_hessian":[2.68E2],"tree_param":{"num_deleted":"0","num_feature":"5","num_nodes":"1","size_leaf_vector":"1"}},{"base_weights":[1.2624787E-8],"categories":[],"categories_nodes":[],"categories_segments":[],"categories_sizes":[],"default_left":[0],"id":92,"left_children":[-1],"loss_changes":[0E0],"parents":[2147483647],"right_children":[-1],"split_conditions":[3.3923153E-9],"split_indices":[0],"split_type":[0],"sum_hessian":[2.68E2],"tree_param":{"num_deleted":"0","num_feature":"5","num_nodes":"1","size_leaf_vector":"1"}},{"base_weights":[1.2340024E-8],"categories":[],"categories_nodes":[],"categories_segments":[],"categories_sizes":[],"default_left":[0],"id":93,"left_children":[-1],"loss_changes":[0E0],"parents":[2147483647],"right_children":[-1],"split_conditions":[3.3157987E-9],"split_indices":[0],"split_type":[0],"sum_hessian":[2.68E2],"tree_param":{"num_deleted":"0","num_feature":"5","num_nodes":"1","size_leaf_vector":"1"}},{"base_weights":[1.2059156E-8],"categories":[],"categories_nodes":[],"categories_segments":[],"categories_sizes":[],"default_left":[0],"id":94,"left_children":[-1],"loss_changes":[0E0],"parents":[2147483647],"right_children":[-1],"split_conditions":[3.2403287E-9],"split_indices":[0],"split_type":[0],"sum_hessian":[2.68E2],"tree_param":{"num_deleted":"0","num_feature":"5","num_nodes":"1","size_leaf_vector":"1"}},{"base_weights":[1.17856445E-8],"categories":[],"categories_nodes":[],"categories_segments":[],"categories_sizes":[],"default_left":[0],"id":95,"left_children":[-1],"loss_changes":[0E0],"parents":[2147483647],"right_children":[-1],"split_conditions":[3.1668355E-9],"split_indices":[0],"split_type":[0],"sum_hessian":[2.68E2],"tree_param":{"num_deleted":"0","num_feature":"5","num_nodes":"1","size_leaf_vector":"1"}},{"base_weights":[1.1505642E-8],"categories":[],"categories_nodes":[],"categories_segments":[],"categories_sizes":[],"default_left":[0],"id":96,"left_children":[-1],"loss_changes":[0E0],"parents":[2147483647],"right_children":[-1],"split_conditions":[3.0915979E-9],"split_indices":[0],"split_type":[0],"sum_hessian":[2.68E2],"tree_param":{"num_deleted":"0","num_feature":"5","num_nodes":"1","size_leaf_vector":"1"}},{"base_weights":[1.1239055E-8],"categories":[],"categories_nodes":[],"categories_segments":[],"categories_sizes":[],"default_left":[0],"id":97,"left_children":[-1],"loss_changes":[0E0],"parents":[2147483647],"right_children":[-1],"split_conditions":[3.0199652E-9],"split_indices":[0],"split_type":[0],"sum_hessian":[2.68E2],"tree_param":{"num_deleted":"0","num_feature":"5","num_nodes":"1","size_leaf_vector":"1"}},{"base_weights":[1.0969006E-8],"categories":[],"categories_nodes":[],"categories_segments":[],"categories_sizes":[],"default_left":[0],"id":98,"left_children":[-1],"loss_changes":[0E0],"parents":[2147483647],"right_children":[-1],"split_conditions":[2.9474023E-9],"split_indices":[0],"split_type":[0],"sum_hessian":[2.68E2],"tree_param":{"num_deleted":"0","num_feature":"5","num_nodes":"1","size_leaf_vector":"1"}},{"base_weights":[1.0700688E-8],"categories":[],"categories_nodes":[],"categories_segments":[],"categories_sizes":[],"default_left":[0],"id":99,"left_children":[-1],"loss_changes":[0E0],"parents":[2147483647],"right_children":[-1],"split_conditions":[2.8753047E-9],"split_indices":[0],"split_type":[0],"sum_hessian":[2.68E2],"tree_param":{"num_deleted":"0","num_feature":"5","num_nodes":"1","size_leaf_vector":"1"}},{"base_weights":[1.0434102E-8],"categories":[],"categories_nodes":[],"categories_segments":[],"categories_sizes":[],"default_left":[0],"id":100,"left_children":[-1],"loss_changes":[0E0],"parents":[2147483647],"right_children":[-1],"split_conditions":[2.803672E-9],"split_indices":[0],"split_type":[0],"sum_hessian":[2.68E2],"tree_param":{"num_deleted":"0","num_feature":"5","num_nodes":"1","size_leaf_vector":"1"}},{"base_weights":[1.0174439E-8],"categories":[],"categories_nodes":[],"categories_segments":[],"categories_sizes":[],"default_left":[0],"id":101,"left_children":[-1],"loss_changes":[0E0],"parents":[2147483647],"right_children":[-1],"split_conditions":[2.7339E-9],"split_indices":[0],"split_type":[0],"sum_hessian":[2.68E2],"tree_param":{"num_deleted":"0","num_feature":"5","num_nodes":"1","size_leaf_vector":"1"}},{"base_weights":[9.907852E-9],"categories":[],"categories_nodes":[],"categories_segments":[],"categories_sizes":[],"default_left":[0],"id":102,"left_children":[-1],"loss_changes":[0E0],"parents":[2147483647],"right_children":[-1],"split_conditions":[2.6622675E-9],"split_indices":[0],"split_type":[0],"sum_hessian":[2.68E2],"tree_param":{"num_deleted":"0","num_feature":"5","num_nodes":"1","size_leaf_vector":"1"}},{"base_weights":[9.65295E-9],"categories":[],"categories_nodes":[],"categories_segments":[],"categories_sizes":[],"default_left":[0],"id":103,"left_children":[-1],"loss_changes":[0E0],"parents":[2147483647],"right_children":[-1],"split_conditions":[2.5937745E-9],"split_indices":[0],"split_type":[0],"sum_hessian":[2.68E2],"tree_param":{"num_deleted":"0","num_feature":"5","num_nodes":"1","size_leaf_vector":"1"}},{"base_weights":[9.3963175E-9],"categories":[],"categories_nodes":[],"categories_segments":[],"categories_sizes":[],"default_left":[0],"id":104,"left_children":[-1],"loss_changes":[0E0],"parents":[2147483647],"right_children":[-1],"split_conditions":[2.5248166E-9],"split_indices":[0],"split_type":[0],"sum_hessian":[2.68E2],"tree_param":{"num_deleted":"0","num_feature":"5","num_nodes":"1","size_leaf_vector":"1"}},{"base_weights":[9.137088E-9],"categories":[],"categories_nodes":[],"categories_segments":[],"categories_sizes":[],"default_left":[0],"id":105,"left_children":[-1],"loss_changes":[0E0],"parents":[2147483647],"right_children":[-1],"split_conditions":[2.455161E-9],"split_indices":[0],"split_type":[0],"sum_hessian":[2.68E2],"tree_param":{"num_deleted":"0","num_feature":"5","num_nodes":"1","size_leaf_vector":"1"}},{"base_weights":[8.886514E-9],"categories":[],"categories_nodes":[],"categories_segments":[],"categories_sizes":[],"default_left":[0],"id":106,"left_children":[-1],"loss_changes":[0E0],"parents":[2147483647],"right_children":[-1],"split_conditions":[2.3878308E-9],"split_indices":[0],"split_type":[0],"sum_hessian":[2.68E2],"tree_param":{"num_deleted":"0","num_feature":"5","num_nodes":"1","size_leaf_vector":"1"}},{"base_weights":[8.6355065E-9],"categories":[],"categories_nodes":[],"categories_segments":[],"categories_sizes":[],"default_left":[0],"id":107,"left_children":[-1],"loss_changes":[0E0],"parents":[2147483647],"right_children":[-1],"split_conditions":[2.3203846E-9],"split_indices":[0],"split_type":[0],"sum_hessian":[2.68E2],"tree_param":{"num_deleted":"0","num_feature":"5","num_nodes":"1","size_leaf_vector":"1"}},{"base_weights":[8.3845E-9],"categories":[],"categories_nodes":[],"categories_segments":[],"categories_sizes":[],"default_left":[0],"id":108,"left_children":[-1],"loss_changes":[0E0],"parents":[2147483647],"right_children":[-1],"split_conditions":[2.2529385E-9],"split_indices":[0],"split_type":[0],"sum_hessian":[2.68E2],"tree_param":{"num_deleted":"0","num_feature":"5","num_nodes":"1","size_leaf_vector":"1"}},{"base_weights":[8.136955E-9],"categories":[],"categories_nodes":[],"categories_segments":[],"categories_sizes":[],"default_left":[0],"id":109,"left_children":[-1],"loss_changes":[0E0],"parents":[2147483647],"right_children":[-1],"split_conditions":[2.1864224E-9],"split_indices":[0],"split_type":[0],"sum_hessian":[2.68E2],"tree_param":{"num_deleted":"0","num_feature":"5","num_nodes":"1","size_leaf_vector":"1"}},{"base_weights":[7.894171E-9],"categories":[],"categories_nodes":[],"categories_segments":[],"categories_sizes":[],"default_left":[0],"id":110,"left_children":[-1],"loss_changes":[0E0],"parents":[2147483647],"right_children":[-1],"split_conditions":[2.1211857E-9],"split_indices":[0],"split_type":[0],"sum_hessian":[2.68E2],"tree_param":{"num_deleted":"0","num_feature":"5","num_nodes":"1","size_leaf_vector":"1"}},{"base_weights":[7.65355E-9],"categories":[],"categories_nodes":[],"categories_segments":[],"categories_sizes":[],"default_left":[0],"id":111,"left_children":[-1],"loss_changes":[0E0],"parents":[2147483647],"right_children":[-1],"split_conditions":[2.05653E-9],"split_indices":[0],"split_type":[0],"sum_hessian":[2.68E2],"tree_param":{"num_deleted":"0","num_feature":"5","num_nodes":"1","size_leaf_vector":"1"}},{"base_weights":[7.406438E-9],"categories":[],"categories_nodes":[],"categories_segments":[],"categories_sizes":[],"default_left":[0],"id":112,"left_children":[-1],"loss_changes":[0E0],"parents":[2147483647],"right_children":[-1],"split_conditions":[1.9901305E-9],"split_indices":[0],"split_type":[0],"sum_hessian":[2.68E2],"tree_param":{"num_deleted":"0","num_feature":"5","num_nodes":"1","size_leaf_vector":"1"}},{"base_weights":[7.1675483E-9],"categories":[],"categories_nodes":[],"categories_segments":[],"categories_sizes":[],"default_left":[0],"id":113,"left_children":[-1],"loss_changes":[0E0],"parents":[2147483647],"right_children":[-1],"split_conditions":[1.92594E-9],"split_indices":[0],"split_type":[0],"sum_hessian":[2.68E2],"tree_param":{"num_deleted":"0","num_feature":"5","num_nodes":"1","size_leaf_vector":"1"}},{"base_weights":[6.932121E-9],"categories":[],"categories_nodes":[],"categories_segments":[],"categories_sizes":[],"default_left":[0],"id":114,"left_children":[-1],"loss_changes":[0E0],"parents":[2147483647],"right_children":[-1],"split_conditions":[1.8626802E-9],"split_indices":[0],"split_type":[0],"sum_hessian":[2.68E2],"tree_param":{"num_deleted":"0","num_feature":"5","num_nodes":"1","size_leaf_vector":"1"}},{"base_weights":[6.696694E-9],"categories":[],"categories_nodes":[],"categories_segments":[],"categories_sizes":[],"default_left":[0],"id":115,"left_children":[-1],"loss_changes":[0E0],"parents":[2147483647],"right_children":[-1],"split_conditions":[1.7994203E-9],"split_indices":[0],"split_type":[0],"sum_hessian":[2.68E2],"tree_param":{"num_deleted":"0","num_feature":"5","num_nodes":"1","size_leaf_vector":"1"}},{"base_weights":[6.6412995E-9],"categories":[],"categories_nodes":[],"categories_segments":[],"categories_sizes":[],"default_left":[0],"id":116,"left_children":[-1],"loss_changes":[0E0],"parents":[2147483647],"right_children":[-1],"split_conditions":[1.7845356E-9],"split_indices":[0],"split_type":[0],"sum_hessian":[2.68E2],"tree_param":{"num_deleted":"0","num_feature":"5","num_nodes":"1","size_leaf_vector":"1"}},{"base_weights":[6.5863377E-9],"categories":[],"categories_nodes":[],"categories_segments":[],"categories_sizes":[],"default_left":[0],"id":117,"left_children":[-1],"loss_changes":[0E0],"parents":[2147483647],"right_children":[-1],"split_conditions":[1.7697672E-9],"split_indices":[0],"split_type":[0],"sum_hessian":[2.68E2],"tree_param":{"num_deleted":"0","num_feature":"5","num_nodes":"1","size_leaf_vector":"1"}},{"base_weights":[6.5313754E-9],"categories":[],"categories_nodes":[],"categories_segments":[],"categories_sizes":[],"default_left":[0],"id":118,"left_children":[-1],"loss_changes":[0E0],"parents":[2147483647],"right_children":[-1],"split_conditions":[1.7549987E-9],"split_indices":[0],"split_type":[0],"sum_hessian":[2.68E2],"tree_param":{"num_deleted":"0","num_feature":"5","num_nodes":"1","size_leaf_vector":"1"}},{"base_weights":[6.481607E-9],"categories":[],"categories_nodes":[],"categories_segments":[],"categories_sizes":[],"default_left":[0],"id":119,"left_children":[-1],"loss_changes":[0E0],"parents":[2147483647],"right_children":[-1],"split_conditions":[1.7416257E-9],"split_indices":[0],"split_type":[0],"sum_hessian":[2.68E2],"tree_param":{"num_deleted":"0","num_feature":"5","num_nodes":"1","size_leaf_vector":"1"}},{"base_weights":[6.4292416E-9],"categories":[],"categories_nodes":[],"categories_segments":[],"categories_sizes":[],"default_left":[0],"id":120,"left_children":[-1],"loss_changes":[0E0],"parents":[2147483647],"right_children":[-1],"split_conditions":[1.7275551E-9],"split_indices":[0],"split_type":[0],"sum_hessian":[2.68E2],"tree_param":{"num_deleted":"0","num_feature":"5","num_nodes":"1","size_leaf_vector":"1"}},{"base_weights":[6.3803385E-9],"categories":[],"categories_nodes":[],"categories_segments":[],"categories_sizes":[],"default_left":[0],"id":121,"left_children":[-1],"loss_changes":[0E0],"parents":[2147483647],"right_children":[-1],"split_conditions":[1.7144146E-9],"split_indices":[0],"split_type":[0],"sum_hessian":[2.68E2],"tree_param":{"num_deleted":"0","num_feature":"5","num_nodes":"1","size_leaf_vector":"1"}},{"base_weights":[6.3348975E-9],"categories":[],"categories_nodes":[],"categories_segments":[],"categories_sizes":[],"default_left":[0],"id":122,"left_children":[-1],"loss_changes":[0E0],"parents":[2147483647],"right_children":[-1],"split_conditions":[1.7022045E-9],"split_indices":[0],"split_type":[0],"sum_hessian":[2.68E2],"tree_param":{"num_deleted":"0","num_feature":"5","num_nodes":"1","size_leaf_vector":"1"}},{"base_weights":[6.281234E-9],"categories":[],"categories_nodes":[],"categories_segments":[],"categories_sizes":[],"default_left":[0],"id":123,"left_children":[-1],"loss_changes":[0E0],"parents":[2147483647],"right_children":[-1],"split_conditions":[1.687785E-9],"split_indices":[0],"split_type":[0],"sum_hessian":[2.68E2],"tree_param":{"num_deleted":"0","num_feature":"5","num_nodes":"1","size_leaf_vector":"1"}},{"base_weights":[6.2293015E-9],"categories":[],"categories_nodes":[],"categories_segments":[],"categories_sizes":[],"default_left":[0],"id":124,"left_children":[-1],"loss_changes":[0E0],"parents":[2147483647],"right_children":[-1],"split_conditions":[1.6738306E-9],"split_indices":[0],"split_type":[0],"sum_hessian":[2.68E2],"tree_param":{"num_deleted":"0","num_feature":"5","num_nodes":"1","size_leaf_vector":"1"}},{"base_weights":[6.1821295E-9],"categories":[],"categories_nodes":[],"categories_segments":[],"categories_sizes":[],"default_left":[0],"id":125,"left_children":[-1],"loss_changes":[0E0],"parents":[2147483647],"right_children":[-1],"split_conditions":[1.6611553E-9],"split_indices":[0],"split_type":[0],"sum_hessian":[2.68E2],"tree_param":{"num_deleted":"0","num_feature":"5","num_nodes":"1","size_leaf_vector":"1"}},{"base_weights":[6.1349574E-9],"categories":[],"categories_nodes":[],"categories_segments":[],"categories_sizes":[],"default_left":[0],"id":126,"left_children":[-1],"loss_changes":[0E0],"parents":[2147483647],"right_children":[-1],"split_conditions":[1.6484801E-9],"split_indices":[0],"split_type":[0],"sum_hessian":[2.68E2],"tree_param":{"num_deleted":"0","num_feature":"5","num_nodes":"1","size_leaf_vector":"1"}},{"base_weights":[6.0864873E-9],"categories":[],"categories_nodes":[],"categories_segments":[],"categories_sizes":[],"default_left":[0],"id":127,"left_children":[-1],"loss_changes":[0E0],"parents":[2147483647],"right_children":[-1],"split_conditions":[1.635456E-9],"split_indices":[0],"split_type":[0],"sum_hessian":[2.68E2],"tree_param":{"num_deleted":"0","num_feature":"5","num_nodes":"1","size_leaf_vector":"1"}},{"base_weights":[6.0345546E-9],"categories":[],"categories_nodes":[],"categories_segments":[],"categories_sizes":[],"default_left":[0],"id":128,"left_children":[-1],"loss_changes":[0E0],"parents":[2147483647],"right_children":[-1],"split_conditions":[1.6215016E-9],"split_indices":[0],"split_type":[0],"sum_hessian":[2.68E2],"tree_param":{"num_deleted":"0","num_feature":"5","num_nodes":"1","size_leaf_vector":"1"}},{"base_weights":[5.9912777E-9],"categories":[],"categories_nodes":[],"categories_segments":[],"categories_sizes":[],"default_left":[0],"id":129,"left_children":[-1],"loss_changes":[0E0],"parents":[2147483647],"right_children":[-1],"split_conditions":[1.6098729E-9],"split_indices":[0],"split_type":[0],"sum_hessian":[2.68E2],"tree_param":{"num_deleted":"0","num_feature":"5","num_nodes":"1","size_leaf_vector":"1"}},{"base_weights":[5.9410765E-9],"categories":[],"categories_nodes":[],"categories_segments":[],"categories_sizes":[],"default_left":[0],"id":130,"left_children":[-1],"loss_changes":[0E0],"parents":[2147483647],"right_children":[-1],"split_conditions":[1.5963838E-9],"split_indices":[0],"split_type":[0],"sum_hessian":[2.68E2],"tree_param":{"num_deleted":"0","num_feature":"5","num_nodes":"1","size_leaf_vector":"1"}},{"base_weights":[5.893039E-9],"categories":[],"categories_nodes":[],"categories_segments":[],"categories_sizes":[],"default_left":[0],"id":131,"left_children":[-1],"loss_changes":[0E0],"parents":[2147483647],"right_children":[-1],"split_conditions":[1.5834759E-9],"split_indices":[0],"split_type":[0],"sum_hessian":[2.68E2],"tree_param":{"num_deleted":"0","num_feature":"5","num_nodes":"1","size_leaf_vector":"1"}},{"base_weights":[5.8415393E-9],"categories":[],"categories_nodes":[],"categories_segments":[],"categories_sizes":[],"default_left":[0],"id":132,"left_children":[-1],"loss_changes":[0E0],"parents":[2147483647],"right_children":[-1],"split_conditions":[1.5696379E-9],"split_indices":[0],"split_type":[0],"sum_hessian":[2.68E2],"tree_param":{"num_deleted":"0","num_feature":"5","num_nodes":"1","size_leaf_vector":"1"}},{"base_weights":[5.7947998E-9],"categories":[],"categories_nodes":[],"categories_segments":[],"categories_sizes":[],"default_left":[0],"id":133,"left_children":[-1],"loss_changes":[0E0],"parents":[2147483647],"right_children":[-1],"split_conditions":[1.5570788E-9],"split_indices":[0],"split_type":[0],"sum_hessian":[2.68E2],"tree_param":{"num_deleted":"0","num_feature":"5","num_nodes":"1","size_leaf_vector":"1"}},{"base_weights":[5.753254E-9],"categories":[],"categories_nodes":[],"categories_segments":[],"categories_sizes":[],"default_left":[0],"id":134,"left_children":[-1],"loss_changes":[0E0],"parents":[2147483647],"right_children":[-1],"split_conditions":[1.5459153E-9],"split_indices":[0],"split_type":[0],"sum_hessian":[2.68E2],"tree_param":{"num_deleted":"0","num_feature":"5","num_nodes":"1","size_leaf_vector":"1"}},{"base_weights":[5.700023E-9],"categories":[],"categories_nodes":[],"categories_segments":[],"categories_sizes":[],"default_left":[0],"id":135,"left_children":[-1],"loss_changes":[0E0],"parents":[2147483647],"right_children":[-1],"split_conditions":[1.5316121E-9],"split_indices":[0],"split_type":[0],"sum_hessian":[2.68E2],"tree_param":{"num_deleted":"0","num_feature":"5","num_nodes":"1","size_leaf_vector":"1"}},{"base_weights":[5.6537166E-9],"categories":[],"categories_nodes":[],"categories_segments":[],"categories_sizes":[],"default_left":[0],"id":136,"left_children":[-1],"loss_changes":[0E0],"parents":[2147483647],"right_children":[-1],"split_conditions":[1.5191693E-9],"split_indices":[0],"split_type":[0],"sum_hessian":[2.68E2],"tree_param":{"num_deleted":"0","num_feature":"5","num_nodes":"1","size_leaf_vector":"1"}},{"base_weights":[5.610872E-9],"categories":[],"categories_nodes":[],"categories_segments":[],"categories_sizes":[],"default_left":[0],"id":137,"left_children":[-1],"loss_changes":[0E0],"parents":[2147483647],"right_children":[-1],"split_conditions":[1.5076569E-9],"split_indices":[0],"split_type":[0],"sum_hessian":[2.68E2],"tree_param":{"num_deleted":"0","num_feature":"5","num_nodes":"1","size_leaf_vector":"1"}},{"base_weights":[5.561969E-9],"categories":[],"categories_nodes":[],"categories_segments":[],"categories_sizes":[],"default_left":[0],"id":138,"left_children":[-1],"loss_changes":[0E0],"parents":[2147483647],"right_children":[-1],"split_conditions":[1.4945165E-9],"split_indices":[0],"split_type":[0],"sum_hessian":[2.68E2],"tree_param":{"num_deleted":"0","num_feature":"5","num_nodes":"1","size_leaf_vector":"1"}},{"base_weights":[5.518259E-9],"categories":[],"categories_nodes":[],"categories_segments":[],"categories_sizes":[],"default_left":[0],"id":139,"left_children":[-1],"loss_changes":[0E0],"parents":[2147483647],"right_children":[-1],"split_conditions":[1.4827716E-9],"split_indices":[0],"split_type":[0],"sum_hessian":[2.68E2],"tree_param":{"num_deleted":"0","num_feature":"5","num_nodes":"1","size_leaf_vector":"1"}},{"base_weights":[5.478012E-9],"categories":[],"categories_nodes":[],"categories_segments":[],"categories_sizes":[],"default_left":[0],"id":140,"left_children":[-1],"loss_changes":[0E0],"parents":[2147483647],"right_children":[-1],"split_conditions":[1.471957E-9],"split_indices":[0],"split_type":[0],"sum_hessian":[2.68E2],"tree_param":{"num_deleted":"0","num_feature":"5","num_nodes":"1","size_leaf_vector":"1"}},{"base_weights":[5.4381966E-9],"categories":[],"categories_nodes":[],"categories_segments":[],"categories_sizes":[],"default_left":[0],"id":141,"left_children":[-1],"loss_changes":[0E0],"parents":[2147483647],"right_children":[-1],"split_conditions":[1.4612586E-9],"split_indices":[0],"split_type":[0],"sum_hessian":[2.68E2],"tree_param":{"num_deleted":"0","num_feature":"5","num_nodes":"1","size_leaf_vector":"1"}},{"base_weights":[5.3949196E-9],"categories":[],"categories_nodes":[],"categories_segments":[],"categories_sizes":[],"default_left":[0],"id":142,"left_children":[-1],"loss_changes":[0E0],"parents":[2147483647],"right_children":[-1],"split_conditions":[1.4496299E-9],"split_indices":[0],"split_type":[0],"sum_hessian":[2.68E2],"tree_param":{"num_deleted":"0","num_feature":"5","num_nodes":"1","size_leaf_vector":"1"}},{"base_weights":[5.3512097E-9],"categories":[],"categories_nodes":[],"categories_segments":[],"categories_sizes":[],"default_left":[0],"id":143,"left_children":[-1],"loss_changes":[0E0],"parents":[2147483647],"right_children":[-1],"split_conditions":[1.4378849E-9],"split_indices":[0],"split_type":[0],"sum_hessian":[2.68E2],"tree_param":{"num_deleted":"0","num_feature":"5","num_nodes":"1","size_leaf_vector":"1"}},{"base_weights":[5.3109623E-9],"categories":[],"categories_nodes":[],"categories_segments":[],"categories_sizes":[],"default_left":[0],"id":144,"left_children":[-1],"loss_changes":[0E0],"parents":[2147483647],"right_children":[-1],"split_conditions":[1.4270704E-9],"split_indices":[0],"split_type":[0],"sum_hessian":[2.68E2],"tree_param":{"num_deleted":"0","num_feature":"5","num_nodes":"1","size_leaf_vector":"1"}},{"base_weights":[5.265954E-9],"categories":[],"categories_nodes":[],"categories_segments":[],"categories_sizes":[],"default_left":[0],"id":145,"left_children":[-1],"loss_changes":[0E0],"parents":[2147483647],"right_children":[-1],"split_conditions":[1.4149765E-9],"split_indices":[0],"split_type":[0],"sum_hessian":[2.68E2],"tree_param":{"num_deleted":"0","num_feature":"5","num_nodes":"1","size_leaf_vector":"1"}},{"base_weights":[5.22787E-9],"categories":[],"categories_nodes":[],"categories_segments":[],"categories_sizes":[],"default_left":[0],"id":146,"left_children":[-1],"loss_changes":[0E0],"parents":[2147483647],"right_children":[-1],"split_conditions":[1.4047432E-9],"split_indices":[0],"split_type":[0],"sum_hessian":[2.68E2],"tree_param":{"num_deleted":"0","num_feature":"5","num_nodes":"1","size_leaf_vector":"1"}},{"base_weights":[5.1794E-9],"categories":[],"categories_nodes":[],"categories_segments":[],"categories_sizes":[],"default_left":[0],"id":147,"left_children":[-1],"loss_changes":[0E0],"parents":[2147483647],"right_children":[-1],"split_conditions":[1.3917192E-9],"split_indices":[0],"split_type":[0],"sum_hessian":[2.68E2],"tree_param":{"num_deleted":"0","num_feature":"5","num_nodes":"1","size_leaf_vector":"1"}},{"base_weights":[5.1447784E-9],"categories":[],"categories_nodes":[],"categories_segments":[],"categories_sizes":[],"default_left":[0],"id":148,"left_children":[-1],"loss_changes":[0E0],"parents":[2147483647],"right_children":[-1],"split_conditions":[1.3824162E-9],"split_indices":[0],"split_type":[0],"sum_hessian":[2.68E2],"tree_param":{"num_deleted":"0","num_feature":"5","num_nodes":"1","size_leaf_vector":"1"}},{"base_weights":[5.09977E-9],"categories":[],"categories_nodes":[],"categories_segments":[],"categories_sizes":[],"default_left":[0],"id":149,"left_children":[-1],"loss_changes":[0E0],"parents":[2147483647],"right_children":[-1],"split_conditions":[1.3703223E-9],"split_indices":[0],"split_type":[0],"sum_hessian":[2.68E2],"tree_param":{"num_deleted":"0","num_feature":"5","num_nodes":"1","size_leaf_vector":"1"}},{"base_weights":[5.061686E-9],"categories":[],"categories_nodes":[],"categories_segments":[],"categories_sizes":[],"default_left":[0],"id":150,"left_children":[-1],"loss_changes":[0E0],"parents":[2147483647],"right_children":[-1],"split_conditions":[1.3600892E-9],"split_indices":[0],"split_type":[0],"sum_hessian":[2.68E2],"tree_param":{"num_deleted":"0","num_feature":"5","num_nodes":"1","size_leaf_vector":"1"}},{"base_weights":[5.0184092E-9],"categories":[],"categories_nodes":[],"categories_segments":[],"categories_sizes":[],"default_left":[0],"id":151,"left_children":[-1],"loss_changes":[0E0],"parents":[2147483647],"right_children":[-1],"split_conditions":[1.3484605E-9],"split_indices":[0],"split_type":[0],"sum_hessian":[2.68E2],"tree_param":{"num_deleted":"0","num_feature":"5","num_nodes":"1","size_leaf_vector":"1"}},{"base_weights":[4.979027E-9],"categories":[],"categories_nodes":[],"categories_segments":[],"categories_sizes":[],"default_left":[0],"id":152,"left_children":[-1],"loss_changes":[0E0],"parents":[2147483647],"right_children":[-1],"split_conditions":[1.3378784E-9],"split_indices":[0],"split_type":[0],"sum_hessian":[2.68E2],"tree_param":{"num_deleted":"0","num_feature":"5","num_nodes":"1","size_leaf_vector":"1"}},{"base_weights":[4.939645E-9],"categories":[],"categories_nodes":[],"categories_segments":[],"categories_sizes":[],"default_left":[0],"id":153,"left_children":[-1],"loss_changes":[0E0],"parents":[2147483647],"right_children":[-1],"split_conditions":[1.3272964E-9],"split_indices":[0],"split_type":[0],"sum_hessian":[2.68E2],"tree_param":{"num_deleted":"0","num_feature":"5","num_nodes":"1","size_leaf_vector":"1"}},{"base_weights":[4.8963678E-9],"categories":[],"categories_nodes":[],"categories_segments":[],"categories_sizes":[],"default_left":[0],"id":154,"left_children":[-1],"loss_changes":[0E0],"parents":[2147483647],"right_children":[-1],"split_conditions":[1.3156676E-9],"split_indices":[0],"split_type":[0],"sum_hessian":[2.68E2],"tree_param":{"num_deleted":"0","num_feature":"5","num_nodes":"1","size_leaf_vector":"1"}},{"base_weights":[4.853091E-9],"categories":[],"categories_nodes":[],"categories_segments":[],"categories_sizes":[],"default_left":[0],"id":155,"left_children":[-1],"loss_changes":[0E0],"parents":[2147483647],"right_children":[-1],"split_conditions":[1.304039E-9],"split_indices":[0],"split_type":[0],"sum_hessian":[2.68E2],"tree_param":{"num_deleted":"0","num_feature":"5","num_nodes":"1","size_leaf_vector":"1"}},{"base_weights":[4.8141415E-9],"categories":[],"categories_nodes":[],"categories_segments":[],"categories_sizes":[],"default_left":[0],"id":156,"left_children":[-1],"loss_changes":[0E0],"parents":[2147483647],"right_children":[-1],"split_conditions":[1.2935731E-9],"split_indices":[0],"split_type":[0],"sum_hessian":[2.68E2],"tree_param":{"num_deleted":"0","num_feature":"5","num_nodes":"1","size_leaf_vector":"1"}},{"base_weights":[4.77952E-9],"categories":[],"categories_nodes":[],"categories_segments":[],"categories_sizes":[],"default_left":[0],"id":157,"left_children":[-1],"loss_changes":[0E0],"parents":[2147483647],"right_children":[-1],"split_conditions":[1.2842702E-9],"split_indices":[0],"split_type":[0],"sum_hessian":[2.68E2],"tree_param":{"num_deleted":"0","num_feature":"5","num_nodes":"1","size_leaf_vector":"1"}},{"base_weights":[4.737108E-9],"categories":[],"categories_nodes":[],"categories_segments":[],"categories_sizes":[],"default_left":[0],"id":158,"left_children":[-1],"loss_changes":[0E0],"parents":[2147483647],"right_children":[-1],"split_conditions":[1.272874E-9],"split_indices":[0],"split_type":[0],"sum_hessian":[2.68E2],"tree_param":{"num_deleted":"0","num_feature":"5","num_nodes":"1","size_leaf_vector":"1"}},{"base_weights":[4.701621E-9],"categories":[],"categories_nodes":[],"categories_segments":[],"categories_sizes":[],"default_left":[0],"id":159,"left_children":[-1],"loss_changes":[0E0],"parents":[2147483647],"right_children":[-1],"split_conditions":[1.2633385E-9],"split_indices":[0],"split_type":[0],"sum_hessian":[2.68E2],"tree_param":{"num_deleted":"0","num_feature":"5","num_nodes":"1","size_leaf_vector":"1"}},{"base_weights":[4.663537E-9],"categories":[],"categories_nodes":[],"categories_segments":[],"categories_sizes":[],"default_left":[0],"id":160,"left_children":[-1],"loss_changes":[0E0],"parents":[2147483647],"right_children":[-1],"split_conditions":[1.2531054E-9],"split_indices":[0],"split_type":[0],"sum_hessian":[2.68E2],"tree_param":{"num_deleted":"0","num_feature":"5","num_nodes":"1","size_leaf_vector":"1"}},{"base_weights":[4.62805E-9],"categories":[],"categories_nodes":[],"categories_segments":[],"categories_sizes":[],"default_left":[0],"id":161,"left_children":[-1],"loss_changes":[0E0],"parents":[2147483647],"right_children":[-1],"split_conditions":[1.2435699E-9],"split_indices":[0],"split_type":[0],"sum_hessian":[2.68E2],"tree_param":{"num_deleted":"0","num_feature":"5","num_nodes":"1","size_leaf_vector":"1"}},{"base_weights":[4.5916972E-9],"categories":[],"categories_nodes":[],"categories_segments":[],"categories_sizes":[],"default_left":[0],"id":162,"left_children":[-1],"loss_changes":[0E0],"parents":[2147483647],"right_children":[-1],"split_conditions":[1.2338018E-9],"split_indices":[0],"split_type":[0],"sum_hessian":[2.68E2],"tree_param":{"num_deleted":"0","num_feature":"5","num_nodes":"1","size_leaf_vector":"1"}},{"base_weights":[4.5570756E-9],"categories":[],"categories_nodes":[],"categories_segments":[],"categories_sizes":[],"default_left":[0],"id":163,"left_children":[-1],"loss_changes":[0E0],"parents":[2147483647],"right_children":[-1],"split_conditions":[1.2244988E-9],"split_indices":[0],"split_type":[0],"sum_hessian":[2.68E2],"tree_param":{"num_deleted":"0","num_feature":"5","num_nodes":"1","size_leaf_vector":"1"}},{"base_weights":[4.52029E-9],"categories":[],"categories_nodes":[],"categories_segments":[],"categories_sizes":[],"default_left":[0],"id":164,"left_children":[-1],"loss_changes":[0E0],"parents":[2147483647],"right_children":[-1],"split_conditions":[1.2146144E-9],"split_indices":[0],"split_type":[0],"sum_hessian":[2.68E2],"tree_param":{"num_deleted":"0","num_feature":"5","num_nodes":"1","size_leaf_vector":"1"}},{"base_weights":[4.4835047E-9],"categories":[],"categories_nodes":[],"categories_segments":[],"categories_sizes":[],"default_left":[0],"id":165,"left_children":[-1],"loss_changes":[0E0],"parents":[2147483647],"right_children":[-1],"split_conditions":[1.2047302E-9],"split_indices":[0],"split_type":[0],"sum_hessian":[2.68E2],"tree_param":{"num_deleted":"0","num_feature":"5","num_nodes":"1","size_leaf_vector":"1"}},{"base_weights":[4.452345E-9],"categories":[],"categories_nodes":[],"categories_segments":[],"categories_sizes":[],"default_left":[0],"id":166,"left_children":[-1],"loss_changes":[0E0],"parents":[2147483647],"right_children":[-1],"split_conditions":[1.1963575E-9],"split_indices":[0],"split_type":[0],"sum_hessian":[2.68E2],"tree_param":{"num_deleted":"0","num_feature":"5","num_nodes":"1","size_leaf_vector":"1"}},{"base_weights":[4.4177235E-9],"categories":[],"categories_nodes":[],"categories_segments":[],"categories_sizes":[],"default_left":[0],"id":167,"left_children":[-1],"loss_changes":[0E0],"parents":[2147483647],"right_children":[-1],"split_conditions":[1.1870546E-9],"split_indices":[0],"split_type":[0],"sum_hessian":[2.68E2],"tree_param":{"num_deleted":"0","num_feature":"5","num_nodes":"1","size_leaf_vector":"1"}},{"base_weights":[4.3796398E-9],"categories":[],"categories_nodes":[],"categories_segments":[],"categories_sizes":[],"default_left":[0],"id":168,"left_children":[-1],"loss_changes":[0E0],"parents":[2147483647],"right_children":[-1],"split_conditions":[1.1768213E-9],"split_indices":[0],"split_type":[0],"sum_hessian":[2.68E2],"tree_param":{"num_deleted":"0","num_feature":"5","num_nodes":"1","size_leaf_vector":"1"}},{"base_weights":[4.345018E-9],"categories":[],"categories_nodes":[],"categories_segments":[],"categories_sizes":[],"default_left":[0],"id":169,"left_children":[-1],"loss_changes":[0E0],"parents":[2147483647],"right_children":[-1],"split_conditions":[1.1675184E-9],"split_indices":[0],"split_type":[0],"sum_hessian":[2.68E2],"tree_param":{"num_deleted":"0","num_feature":"5","num_nodes":"1","size_leaf_vector":"1"}},{"base_weights":[4.3086654E-9],"categories":[],"categories_nodes":[],"categories_segments":[],"categories_sizes":[],"default_left":[0],"id":170,"left_children":[-1],"loss_changes":[0E0],"parents":[2147483647],"right_children":[-1],"split_conditions":[1.1577503E-9],"split_indices":[0],"split_type":[0],"sum_hessian":[2.68E2],"tree_param":{"num_deleted":"0","num_feature":"5","num_nodes":"1","size_leaf_vector":"1"}},{"base_weights":[4.279237E-9],"categories":[],"categories_nodes":[],"categories_segments":[],"categories_sizes":[],"default_left":[0],"id":171,"left_children":[-1],"loss_changes":[0E0],"parents":[2147483647],"right_children":[-1],"split_conditions":[1.1498429E-9],"split_indices":[0],"split_type":[0],"sum_hessian":[2.68E2],"tree_param":{"num_deleted":"0","num_feature":"5","num_nodes":"1","size_leaf_vector":"1"}},{"base_weights":[4.2376906E-9],"categories":[],"categories_nodes":[],"categories_segments":[],"categories_sizes":[],"default_left":[0],"id":172,"left_children":[-1],"loss_changes":[0E0],"parents":[2147483647],"right_children":[-1],"split_conditions":[1.1386793E-9],"split_indices":[0],"split_type":[0],"sum_hessian":[2.68E2],"tree_param":{"num_deleted":"0","num_feature":"5","num_nodes":"1","size_leaf_vector":"1"}},{"base_weights":[4.206531E-9],"categories":[],"categories_nodes":[],"categories_segments":[],"categories_sizes":[],"default_left":[0],"id":173,"left_children":[-1],"loss_changes":[0E0],"parents":[2147483647],"right_children":[-1],"split_conditions":[1.1303066E-9],"split_indices":[0],"split_type":[0],"sum_hessian":[2.68E2],"tree_param":{"num_deleted":"0","num_feature":"5","num_nodes":"1","size_leaf_vector":"1"}},{"base_weights":[4.175372E-9],"categories":[],"categories_nodes":[],"categories_segments":[],"categories_sizes":[],"default_left":[0],"id":174,"left_children":[-1],"loss_changes":[0E0],"parents":[2147483647],"right_children":[-1],"split_conditions":[1.1219341E-9],"split_indices":[0],"split_type":[0],"sum_hessian":[2.68E2],"tree_param":{"num_deleted":"0","num_feature":"5","num_nodes":"1","size_leaf_vector":"1"}},{"base_weights":[4.14075E-9],"categories":[],"categories_nodes":[],"categories_segments":[],"categories_sizes":[],"default_left":[0],"id":175,"left_children":[-1],"loss_changes":[0E0],"parents":[2147483647],"right_children":[-1],"split_conditions":[1.112631E-9],"split_indices":[0],"split_type":[0],"sum_hessian":[2.68E2],"tree_param":{"num_deleted":"0","num_feature":"5","num_nodes":"1","size_leaf_vector":"1"}},{"base_weights":[4.1082924E-9],"categories":[],"categories_nodes":[],"categories_segments":[],"categories_sizes":[],"default_left":[0],"id":176,"left_children":[-1],"loss_changes":[0E0],"parents":[2147483647],"right_children":[-1],"split_conditions":[1.1039095E-9],"split_indices":[0],"split_type":[0],"sum_hessian":[2.68E2],"tree_param":{"num_deleted":"0","num_feature":"5","num_nodes":"1","size_leaf_vector":"1"}},{"base_weights":[4.06891E-9],"categories":[],"categories_nodes":[],"categories_segments":[],"categories_sizes":[],"default_left":[0],"id":177,"left_children":[-1],"loss_changes":[0E0],"parents":[2147483647],"right_children":[-1],"split_conditions":[1.0933274E-9],"split_indices":[0],"split_type":[0],"sum_hessian":[2.68E2],"tree_param":{"num_deleted":"0","num_feature":"5","num_nodes":"1","size_leaf_vector":"1"}},{"base_weights":[4.0377506E-9],"categories":[],"categories_nodes":[],"categories_segments":[],"categories_sizes":[],"default_left":[0],"id":178,"left_children":[-1],"loss_changes":[0E0],"parents":[2147483647],"right_children":[-1],"split_conditions":[1.0849548E-9],"split_indices":[0],"split_type":[0],"sum_hessian":[2.68E2],"tree_param":{"num_deleted":"0","num_feature":"5","num_nodes":"1","size_leaf_vector":"1"}},{"base_weights":[4.0083226E-9],"categories":[],"categories_nodes":[],"categories_segments":[],"categories_sizes":[],"default_left":[0],"id":179,"left_children":[-1],"loss_changes":[0E0],"parents":[2147483647],"right_children":[-1],"split_conditions":[1.0770475E-9],"split_indices":[0],"split_type":[0],"sum_hessian":[2.68E2],"tree_param":{"num_deleted":"0","num_feature":"5","num_nodes":"1","size_leaf_vector":"1"}},{"base_weights":[3.9672092E-9],"categories":[],"categories_nodes":[],"categories_segments":[],"categories_sizes":[],"default_left":[0],"id":180,"left_children":[-1],"loss_changes":[0E0],"parents":[2147483647],"right_children":[-1],"split_conditions":[1.0660002E-9],"split_indices":[0],"split_type":[0],"sum_hessian":[2.68E2],"tree_param":{"num_deleted":"0","num_feature":"5","num_nodes":"1","size_leaf_vector":"1"}},{"base_weights":[3.9364823E-9],"categories":[],"categories_nodes":[],"categories_segments":[],"categories_sizes":[],"default_left":[0],"id":181,"left_children":[-1],"loss_changes":[0E0],"parents":[2147483647],"right_children":[-1],"split_conditions":[1.0577437E-9],"split_indices":[0],"split_type":[0],"sum_hessian":[2.68E2],"tree_param":{"num_deleted":"0","num_feature":"5","num_nodes":"1","size_leaf_vector":"1"}},{"base_weights":[3.9057557E-9],"categories":[],"categories_nodes":[],"categories_segments":[],"categories_sizes":[],"default_left":[0],"id":182,"left_children":[-1],"loss_changes":[0E0],"parents":[2147483647],"right_children":[-1],"split_conditions":[1.0494874E-9],"split_indices":[0],"split_type":[0],"sum_hessian":[2.68E2],"tree_param":{"num_deleted":"0","num_feature":"5","num_nodes":"1","size_leaf_vector":"1"}},{"base_weights":[3.8715666E-9],"categories":[],"categories_nodes":[],"categories_segments":[],"categories_sizes":[],"default_left":[0],"id":183,"left_children":[-1],"loss_changes":[0E0],"parents":[2147483647],"right_children":[-1],"split_conditions":[1.0403007E-9],"split_indices":[0],"split_type":[0],"sum_hessian":[2.68E2],"tree_param":{"num_deleted":"0","num_feature":"5","num_nodes":"1","size_leaf_vector":"1"}},{"base_weights":[3.8434367E-9],"categories":[],"categories_nodes":[],"categories_segments":[],"categories_sizes":[],"default_left":[0],"id":184,"left_children":[-1],"loss_changes":[0E0],"parents":[2147483647],"right_children":[-1],"split_conditions":[1.0327421E-9],"split_indices":[0],"split_type":[0],"sum_hessian":[2.68E2],"tree_param":{"num_deleted":"0","num_feature":"5","num_nodes":"1","size_leaf_vector":"1"}},{"base_weights":[3.8153067E-9],"categories":[],"categories_nodes":[],"categories_segments":[],"categories_sizes":[],"default_left":[0],"id":185,"left_children":[-1],"loss_changes":[0E0],"parents":[2147483647],"right_children":[-1],"split_conditions":[1.0251835E-9],"split_indices":[0],"split_type":[0],"sum_hessian":[2.68E2],"tree_param":{"num_deleted":"0","num_feature":"5","num_nodes":"1","size_leaf_vector":"1"}},{"base_weights":[3.7871764E-9],"categories":[],"categories_nodes":[],"categories_segments":[],"categories_sizes":[],"default_left":[0],"id":186,"left_children":[-1],"loss_changes":[0E0],"parents":[2147483647],"right_children":[-1],"split_conditions":[1.0176248E-9],"split_indices":[0],"split_type":[0],"sum_hessian":[2.68E2],"tree_param":{"num_deleted":"0","num_feature":"5","num_nodes":"1","size_leaf_vector":"1"}},{"base_weights":[3.7590464E-9],"categories":[],"categories_nodes":[],"categories_segments":[],"categories_sizes":[],"default_left":[0],"id":187,"left_children":[-1],"loss_changes":[0E0],"parents":[2147483647],"right_children":[-1],"split_conditions":[1.0100663E-9],"split_indices":[0],"split_type":[0],"sum_hessian":[2.68E2],"tree_param":{"num_deleted":"0","num_feature":"5","num_nodes":"1","size_leaf_vector":"1"}},{"base_weights":[3.731349E-9],"categories":[],"categories_nodes":[],"categories_segments":[],"categories_sizes":[],